{"_timestamp":1.7688273826447155e+09,"best_test_accuracy":98.96,"Images/activations/features.3":{"size":395260,"path":"media/images/Images/activations/features.3_1923_d703878b97d7c4b3b58c.png","format":"png","width":1026,"height":322,"caption":"Activations features.3","_type":"image-file","sha256":"d703878b97d7c4b3b58c0002aa1e86a9fb81827700abcd3f2fd2496b21b78524"},"Images/weights/features.0":{"size":1066,"path":"media/images/Images/weights/features.0_1923_bc04ca734f84e70ff498.png","format":"png","width":7,"height":162,"caption":"Weights features.0","_type":"image-file","sha256":"bc04ca734f84e70ff4982ee17a396154b6b86da79404ea1d8c5543063902c503"},"gradients/classifier.2.bias":{"bins":[-45.53125,-43.55419921875,-41.5771484375,-39.60009765625,-37.623046875,-35.64599609375,-33.6689453125,-31.69189453125,-29.71484375,-27.73779296875,-25.7607421875,-23.78369140625,-21.806640625,-19.82958984375,-17.8525390625,-15.87548828125,-13.8984375,-11.92138671875,-9.9443359375,-7.96728515625,-5.990234375,-4.01318359375,-2.0361328125,-0.05908203125,1.91796875,3.89501953125,5.8720703125,7.84912109375,9.826171875,11.80322265625,13.7802734375,15.75732421875,17.734375,19.71142578125,21.6884765625,23.66552734375,25.642578125,27.61962890625,29.5966796875,31.57373046875,33.55078125,35.52783203125,37.5048828125,39.48193359375,41.458984375,43.43603515625,45.4130859375,47.39013671875,49.3671875,51.34423828125,53.3212890625,55.29833984375,57.275390625,59.25244140625,61.2294921875,63.20654296875,65.18359375,67.16064453125,69.1376953125,71.11474609375,73.091796875,75.06884765625,77.0458984375,79.02294921875,81],"_type":"histogram","values":[2,0,0,0,0,0,0,0,0,0,0,1,0,0,0,1,0,0,0,0,0,1,0,0,1,1,0,1,0,0,0,0,0,0,0,0,0,0,0,0,1,0,0,0,0,0,0,0,0,0,0,0,0,0,0,0,0,0,0,0,0,0,0,1]},"Validation Predictions":{"ncols":14,"_latest_artifact_path":"wandb-client-artifact://jbqvz7h4ffcvys85l3x0gg1cc9y6axa0e9hmtn63l777stff5h84j4easronkt2o6uqhlzwfgs24bro63b4nwcedwd7gekhdcfvfxa9iv61exz8xmx42wxe4m876g4b5:latest/Validation Predictions.table.json","path":"media/table/Validation Predictions_1587_2ad5778142e0d9b90121.table.json","nrows":102,"artifact_path":"wandb-client-artifact://cba0o9xb8tefc8d4vckaxnh9ss42mnq7z166qoavcxeiowzg8yg91flnmfhmwafzumqskr405hy9f13eu6kurn1fkftc179o3yj5ojaboqw41mtcaqfxw3qoh3xtqi3f/Validation Predictions.table.json","sha256":"2ad5778142e0d9b90121aca4bd4964307e2a936fe45afbd028a6922db35d279b","log_mode":"IMMUTABLE","_type":"table-file","size":27262},"gradients/classifier.2.weight":{"bins":[-448.75,-430.09765625,-411.4453125,-392.79296875,-374.140625,-355.48828125,-336.8359375,-318.18359375,-299.53125,-280.87890625,-262.2265625,-243.57421875,-224.921875,-206.26953125,-187.6171875,-168.96484375,-150.3125,-131.66015625,-113.0078125,-94.35546875,-75.703125,-57.05078125,-38.3984375,-19.74609375,-1.09375,17.55859375,36.2109375,54.86328125,73.515625,92.16796875,110.8203125,129.47265625,148.125,166.77734375,185.4296875,204.08203125,222.734375,241.38671875,260.0390625,278.69140625,297.34375,315.99609375,334.6484375,353.30078125,371.953125,390.60546875,409.2578125,427.91015625,446.5625,465.21484375,483.8671875,502.51953125,521.171875,539.82421875,558.4765625,577.12890625,595.78125,614.43359375,633.0859375,651.73828125,670.390625,689.04296875,707.6953125,726.34765625,745],"_type":"histogram","values":[1,2,0,1,2,2,2,5,7,6,8,2,10,7,14,8,14,13,17,28,30,47,56,117,568,70,52,39,40,22,18,15,8,9,6,6,3,3,4,3,2,1,2,1,2,0,1,0,2,1,0,1,0,0,0,0,1,0,0,0,0,0,0,1]},"gradients/features.0.bias":{"bins":[-79.5625,-77.9921875,-76.421875,-74.8515625,-73.28125,-71.7109375,-70.140625,-68.5703125,-67,-65.4296875,-63.859375,-62.2890625,-60.71875,-59.1484375,-57.578125,-56.0078125,-54.4375,-52.8671875,-51.296875,-49.7265625,-48.15625,-46.5859375,-45.015625,-43.4453125,-41.875,-40.3046875,-38.734375,-37.1640625,-35.59375,-34.0234375,-32.453125,-30.8828125,-29.3125,-27.7421875,-26.171875,-24.6015625,-23.03125,-21.4609375,-19.890625,-18.3203125,-16.75,-15.1796875,-13.609375,-12.0390625,-10.46875,-8.8984375,-7.328125,-5.7578125,-4.1875,-2.6171875,-1.046875,0.5234375,2.09375,3.6640625,5.234375,6.8046875,8.375,9.9453125,11.515625,13.0859375,14.65625,16.2265625,17.796875,19.3671875,20.9375],"_type":"histogram","values":[1,0,0,0,0,0,0,0,0,0,0,0,0,0,0,0,0,0,0,0,0,0,0,1,0,0,0,1,1,0,0,0,1,0,2,0,0,0,1,1,0,0,1,0,2,1,4,1,0,1,2,0,1,3,1,0,0,0,2,1,2,0,0,1]},"Images/weights/features.3":{"path":"media/images/Images/weights/features.3_1923_30a70f80dcf530f56cf1.png","format":"png","width":162,"height":322,"caption":"Weights features.3","_type":"image-file","sha256":"30a70f80dcf530f56cf1ccd9925c50b4704b0688ae8515de0247fc5a071d6cef","size":43700},"Validation Confusion Matrix_table":{"_type":"table-file","path":"media/table/Validation Confusion Matrix_table_1587_a21a1a8ebda79f8b385b.table.json","nrows":100,"log_mode":"IMMUTABLE","_latest_artifact_path":"wandb-client-artifact://g7qyzv7dq2dl4upduurrx89pkio0r1z189xnj02sirxysdsqjz3knbyz9054ev6daa083nji04ukbmevwyoj956xc0ko752f6vohwl158sufehg7kzqy8a1uw1sc81m3:latest/Validation Confusion Matrix_table.table.json","artifact_path":"wandb-client-artifact://ibj5t2rp7q6umzmvy0yqkxamdpewetre6m6z4nq57mvi39coyifxoefymy8ap23nm32qud740zubk0028cgr2p1ko1436ftn33ynvfuunfghpu2rhblwmjv0azwd2uz3/Validation Confusion Matrix_table.table.json","size":1792,"ncols":3,"sha256":"a21a1a8ebda79f8b385bed438de1c4a0aa52cac4d4f0fea369ee039d069bf903"},"parameters/classifier.2.weight":{"_type":"histogram","values":[1,0,1,2,2,0,2,3,5,6,2,10,10,5,11,13,14,23,33,23,45,45,60,43,60,63,56,54,55,46,51,44,47,39,45,46,40,40,28,29,31,16,23,16,10,12,13,5,7,8,7,6,5,3,2,3,3,0,2,2,1,2,0,1],"bins":[-0.3187105655670166,-0.3080108165740967,-0.29731106758117676,-0.28661131858825684,-0.2759115695953369,-0.265211820602417,-0.25451207160949707,-0.24381232261657715,-0.23311257362365723,-0.2224128246307373,-0.21171307563781738,-0.20101332664489746,-0.19031357765197754,-0.17961382865905762,-0.1689140796661377,-0.15821433067321777,-0.14751458168029785,-0.13681483268737793,-0.126115083694458,-0.11541533470153809,-0.10471558570861816,-0.09401583671569824,-0.08331608772277832,-0.0726163387298584,-0.06191658973693848,-0.051216840744018555,-0.04051709175109863,-0.02981734275817871,-0.01911759376525879,-0.008417844772338867,0.0022819042205810547,0.012981653213500977,0.023681432008743286,0.03438118100166321,0.04508092999458313,0.05578067898750305,0.06648042798042297,0.0771801769733429,0.08787992596626282,0.09857967495918274,0.10927942395210266,0.11997917294502258,0.1306789219379425,0.14137867093086243,0.15207841992378235,0.16277816891670227,0.1734779179096222,0.18417766690254211,0.19487741589546204,0.20557716488838196,0.21627691388130188,0.2269766628742218,0.23767641186714172,0.24837616086006165,0.25907590985298157,0.2697756588459015,0.2804754078388214,0.29117515683174133,0.30187490582466125,0.3125746548175812,0.3232744038105011,0.333974152803421,0.34467390179634094,0.35537365078926086,0.3660733997821808]},"parameters/features.0.bias":{"values":[1,0,0,0,0,0,4,0,1,2,0,1,0,0,1,1,2,1,0,1,1,0,1,0,1,1,1,0,1,2,0,0,0,0,0,0,0,1,0,0,0,0,0,0,0,0,0,1,0,0,0,2,0,0,0,1,0,1,0,0,0,1,0,2],"bins":[-0.2997501492500305,-0.2902218699455261,-0.28069356083869934,-0.27116528153419495,-0.26163697242736816,-0.25210869312286377,-0.242580384016037,-0.2330520898103714,-0.2235237956047058,-0.21399551630020142,-0.20446722209453583,-0.19493892788887024,-0.18541063368320465,-0.17588233947753906,-0.16635404527187347,-0.15682575106620789,-0.1472974568605423,-0.1377691626548767,-0.12824086844921112,-0.11871257424354553,-0.10918428003787994,-0.09965599328279495,-0.09012769907712936,-0.08059940487146378,-0.07107111066579819,-0.0615428164601326,-0.05201452225446701,-0.04248623177409172,-0.03295793756842613,-0.023429643362760544,-0.013901351019740105,-0.004373057745397091,0.005155235528945923,0.014683528803288937,0.02421182207763195,0.03374011442065239,0.04326840862631798,0.052796702831983566,0.062324993312358856,0.07185328751802444,0.08138158172369003,0.09090987592935562,0.10043817013502121,0.1099664643406868,0.11949475109577179,0.12902304530143738,0.13855133950710297,0.14807963371276855,0.15760792791843414,0.16713622212409973,0.17666451632976532,0.1861928105354309,0.1957211047410965,0.20524939894676208,0.21477769315242767,0.22430598735809326,0.23383426666259766,0.24336256086826324,0.25289085507392883,0.2624191641807556,0.27194744348526,0.2814757525920868,0.2910040318965912,0.30053234100341797,0.31006062030792236],"_type":"histogram"},"Test Predictions":{"path":"media/table/Test Predictions_1925_75ecaf3baa94ceaf9dab.table.json","_type":"table-file","sha256":"75ecaf3baa94ceaf9dab884592838a8a29c7504bc13df25b3320ffe63b3d0f61","log_mode":"IMMUTABLE","_latest_artifact_path":"wandb-client-artifact://74hoge3vylvdtr67lscvbztc7z9qq1sak22lagwkg0x3isj0wd0f1a69u6n0ih0fmn8uqpv2mibn6ryc2jsocs3f8qqjs1yhnqei3hwcsm89p8rnpcg6ugtn64kncrmp:latest/Test Predictions.table.json","ncols":14,"size":27801,"nrows":104,"artifact_path":"wandb-client-artifact://himp0eiyt5rha6f67su8fbnd2ixkhbxcdon2vpc02gnzclbd4ds9xf6tmz0nv5rnjeg0vixajowk8i0micdtvx2y5ue0k2fkkywyxyovgjevf1ot1pqg8yb6rwb74ezk/Test Predictions.table.json"},"best_val_loss":0.027158693810304006,"fixed_val_images":{"width":28,"height":28,"format":"png","count":20,"filenames":["media/images/fixed_val_images_963_044ca3e90b944fba7be5.png","media/images/fixed_val_images_963_b99510dfd374833542cd.png","media/images/fixed_val_images_963_25acc7bdaf2cffe615cb.png","media/images/fixed_val_images_963_e19488a02835bbea31d6.png","media/images/fixed_val_images_963_86c33baaaa3d42ec5426.png","media/images/fixed_val_images_963_7baf982e4d1f9dc5fddd.png","media/images/fixed_val_images_963_0df2f69c26c57c062d21.png","media/images/fixed_val_images_963_127e32b20b7120bac5fe.png","media/images/fixed_val_images_963_e4a4b8373fc1ea0b4f90.png","media/images/fixed_val_images_963_1e74c30651d8402b5f8e.png","media/images/fixed_val_images_963_0abe61b18aca3c2ae7de.png","media/images/fixed_val_images_963_02cff03dbbf498d70b30.png","media/images/fixed_val_images_963_888513fc4490bdf40f97.png","media/images/fixed_val_images_963_e55e4b47f22ea43d539b.png","media/images/fixed_val_images_963_06c6307ad8b3ca0b7dcb.png","media/images/fixed_val_images_963_9dc03d9cbf35a99a5a85.png","media/images/fixed_val_images_963_5683ef7dcd04d7dbc6a9.png","media/images/fixed_val_images_963_d002143fc88d77e298aa.png","media/images/fixed_val_images_963_7fe04d724ed85e45197a.png","media/images/fixed_val_images_963_478e6eea3cc6cbc62b43.png"],"captions":["Img 0","Img 1","Img 2","Img 3","Img 4","Img 5","Img 6","Img 7","Img 8","Img 9","Img 10","Img 11","Img 12","Img 13","Img 14","Img 15","Img 16","Img 17","Img 18","Img 19"],"_type":"images/separated"},"gradients/features.0.weight":{"_type":"histogram","values":[1,0,0,0,0,0,0,2,0,0,0,1,4,0,2,0,2,1,2,0,2,1,4,7,4,3,1,3,3,3,7,5,4,2,11,8,9,10,18,13,23,22,34,13,10,4,5,6,6,4,4,0,4,1,3,3,3,0,1,1,4,2,1,1],"bins":[-129.5,-126.3828125,-123.265625,-120.1484375,-117.03125,-113.9140625,-110.796875,-107.6796875,-104.5625,-101.4453125,-98.328125,-95.2109375,-92.09375,-88.9765625,-85.859375,-82.7421875,-79.625,-76.5078125,-73.390625,-70.2734375,-67.15625,-64.0390625,-60.921875,-57.8046875,-54.6875,-51.5703125,-48.453125,-45.3359375,-42.21875,-39.1015625,-35.984375,-32.8671875,-29.75,-26.6328125,-23.515625,-20.3984375,-17.28125,-14.1640625,-11.046875,-7.9296875,-4.8125,-1.6953125,1.421875,4.5390625,7.65625,10.7734375,13.890625,17.0078125,20.125,23.2421875,26.359375,29.4765625,32.59375,35.7109375,38.828125,41.9453125,45.0625,48.1796875,51.296875,54.4140625,57.53125,60.6484375,63.765625,66.8828125,70]},"parameters/classifier.0.bias":{"values":[4,0,1,1,1,3,1,4,0,2,2,3,3,3,1,1,5,2,4,4,1,2,6,2,0,5,4,3,1,3,4,2,4,4,3,4,3,2,1,3,2,0,5,0,1,2,0,2,3,1,0,2,2,2,0,0,0,0,1,0,1,0,0,2],"bins":[-0.016593657433986664,-0.015960169956088066,-0.015326682478189468,-0.01469319500029087,-0.014059707522392273,-0.013426220044493675,-0.012792732566595078,-0.01215924508869648,-0.011525757610797882,-0.010892271064221859,-0.010258783586323261,-0.009625296108424664,-0.008991808630526066,-0.008358321152627468,-0.00772483367472887,-0.007091346196830273,-0.006457858718931675,-0.005824371241033077,-0.0051908837631344795,-0.004557396285235882,-0.003923908807337284,-0.00329042156226933,-0.002656934317201376,-0.0020234468393027782,-0.0013899593614041805,-0.0007564719417132437,-0.00012298452202230692,0.0005105028976686299,0.0011439903173595667,0.0017774777952581644,0.0024109650403261185,0.003044452518224716,0.003677939996123314,0.004311427474021912,0.004944914951920509,0.005578402429819107,0.006211889907717705,0.006845376919955015,0.007478864397853613,0.008112352341413498,0.008745839819312096,0.009379326365888119,0.010012813843786716,0.010646301321685314,0.011279788799583912,0.01191327627748251,0.012546763755381107,0.013180251233279705,0.013813738711178303,0.0144472261890769,0.015080713666975498,0.01571420021355152,0.01634768769145012,0.016981175169348717,0.017614662647247314,0.018248150125145912,0.01888163760304451,0.019515125080943108,0.020148612558841705,0.020782100036740303,0.0214155875146389,0.0220490749925375,0.022682562470436096,0.023316049948334694,0.02394953742623329],"_type":"histogram"},"Images/activations/features.0":{"size":431660,"path":"media/images/Images/activations/features.0_1923_b47f3d2b6be284922698.png","format":"png","width":962,"height":602,"caption":"Activations features.0","_type":"image-file","sha256":"b47f3d2b6be284922698d935bf8a71b5995a7d7a2786e388e99976ac28d0a2a6"},"best_test_loss":0.03082885507941246,"_step":1925,"train/accuracy":99.65208333333334,"parameters/classifier.0.weight":{"values":[1,0,0,0,0,1,0,2,1,3,2,2,4,6,14,13,17,26,40,69,97,119,222,299,508,731,1183,2024,3589,8205,25562,30251,31387,32408,32343,32915,32832,32196,32372,31466,29602,24421,7179,3581,2037,1235,780,514,391,225,169,121,77,55,30,25,15,12,8,9,2,6,3,1],"bins":[-0.10780861228704453,-0.1048123687505722,-0.10181612521409988,-0.09881988912820816,-0.09582364559173584,-0.09282740205526352,-0.0898311585187912,-0.08683491498231888,-0.08383867144584656,-0.08084243535995483,-0.07784619182348251,-0.07484994828701019,-0.07185370475053787,-0.06885746121406555,-0.06586122512817383,-0.06286498159170151,-0.05986873805522919,-0.056872494518756866,-0.053876254707574844,-0.050880011171102524,-0.0478837713599205,-0.04488752782344818,-0.04189128428697586,-0.03889504447579384,-0.03589880093932152,-0.0329025574028492,-0.029906317591667175,-0.026910074055194855,-0.023913832381367683,-0.020917590707540512,-0.01792134717106819,-0.01492510549724102,-0.011928856372833252,-0.00893261469900608,-0.005936372093856335,-0.002940129954367876,5.611218512058258e-05,0.003052354324609041,0.0060485964640975,0.009044839069247246,0.012041080743074417,0.015037322416901588,0.01803356409072876,0.02102980762720108,0.02402604930102825,0.027022290974855423,0.030018534511327744,0.033014774322509766,0.036011017858982086,0.03900726139545441,0.04200350120663643,0.04499974474310875,0.04799598455429077,0.05099222809076309,0.05398847162723541,0.056984711438417435,0.059980954974889755,0.06297719478607178,0.0659734383225441,0.06896968185901642,0.07196592539548874,0.07496216893196106,0.07795840501785278,0.0809546485543251,0.08395089209079742],"_type":"histogram"},"gradients/features.3.bias":{"values":[1,0,0,0,0,0,0,0,0,0,0,1,1,1,0,0,0,0,0,1,0,0,0,1,0,0,2,1,1,3,0,2,1,3,4,0,3,3,2,3,1,3,4,1,3,1,3,0,1,2,2,0,3,1,1,1,2,0,0,0,0,0,0,1],"bins":[-40,-39.032958984375,-38.06591796875,-37.098876953125,-36.1318359375,-35.164794921875,-34.19775390625,-33.230712890625,-32.263671875,-31.296630859375,-30.32958984375,-29.362548828125,-28.3955078125,-27.428466796875,-26.46142578125,-25.494384765625,-24.52734375,-23.560302734375,-22.59326171875,-21.626220703125,-20.6591796875,-19.692138671875,-18.72509765625,-17.758056640625,-16.791015625,-15.823974609375,-14.85693359375,-13.889892578125,-12.9228515625,-11.955810546875,-10.98876953125,-10.021728515625,-9.0546875,-8.087646484375,-7.12060546875,-6.153564453125,-5.1865234375,-4.219482421875,-3.25244140625,-2.285400390625,-1.318359375,-0.351318359375,0.61572265625,1.582763671875,2.5498046875,3.516845703125,4.48388671875,5.450927734375,6.41796875,7.385009765625,8.35205078125,9.319091796875,10.2861328125,11.253173828125,12.22021484375,13.187255859375,14.154296875,15.121337890625,16.08837890625,17.055419921875,18.0224609375,18.989501953125,19.95654296875,20.923583984375,21.890625],"_type":"histogram"},"val/accuracy":99.10833333333333,"parameters/features.3.bias":{"values":[1,0,1,0,0,0,1,0,1,0,1,1,1,1,1,2,0,2,5,0,2,1,1,0,2,2,1,1,2,4,0,0,0,1,1,2,0,1,2,2,2,1,0,0,0,2,0,0,4,3,1,2,0,1,0,1,1,1,1,0,0,0,0,1],"bins":[-0.08704107254743576,-0.08470921963453293,-0.0823773667216301,-0.08004551380872726,-0.07771366089582443,-0.0753818079829216,-0.07304996252059937,-0.07071810960769653,-0.0683862566947937,-0.06605440378189087,-0.06372255086898804,-0.061390697956085205,-0.05905884504318237,-0.05672699213027954,-0.05439514294266701,-0.052063290029764175,-0.04973143711686134,-0.04739958420395851,-0.04506773129105568,-0.042735882103443146,-0.040404029190540314,-0.03807217627763748,-0.03574032336473465,-0.03340847045183182,-0.031076619401574135,-0.028744766488671303,-0.02641291543841362,-0.024081062525510788,-0.021749209612607956,-0.019417358562350273,-0.01708550564944744,-0.014753653667867184,-0.012421797960996628,-0.01008994597941637,-0.007758093532174826,-0.005426241084933281,-0.0030943891033530235,-0.0007625368889421225,0.0015693153254687786,0.0039011675398796797,0.006233019754290581,0.008564871735870838,0.010896723717451096,0.013228576630353928,0.015560428611934185,0.017892280593514442,0.020224133506417274,0.022555984556674957,0.02488783746957779,0.02721969038248062,0.029551541432738304,0.03188339248299599,0.03421524539589882,0.03654709830880165,0.03887895122170448,0.041210804134607315,0.04354265332221985,0.04587450623512268,0.04820635914802551,0.050538212060928345,0.05287006497383118,0.05520191788673401,0.05753376707434654,0.059865619987249374,0.062197472900152206],"_type":"histogram"},"gradients/classifier.0.weight":{"values":[1,1,8,7,13,13,9,31,43,57,80,114,152,216,295,423,655,951,1425,2249,3349,5683,9943,24437,297280,25596,10675,6075,3780,2491,1555,1106,754,492,369,290,211,135,124,82,61,33,24,22,13,24,17,6,8,7,2,4,3,3,3,2,2,1,1,0,0,0,0,2],"bins":[-221,-211.984375,-202.96875,-193.953125,-184.9375,-175.921875,-166.90625,-157.890625,-148.875,-139.859375,-130.84375,-121.828125,-112.8125,-103.796875,-94.78125,-85.765625,-76.75,-67.734375,-58.71875,-49.703125,-40.6875,-31.671875,-22.65625,-13.640625,-4.625,4.390625,13.40625,22.421875,31.4375,40.453125,49.46875,58.484375,67.5,76.515625,85.53125,94.546875,103.5625,112.578125,121.59375,130.609375,139.625,148.640625,157.65625,166.671875,175.6875,184.703125,193.71875,202.734375,211.75,220.765625,229.78125,238.796875,247.8125,256.828125,265.84375,274.859375,283.875,292.890625,301.90625,310.921875,319.9375,328.953125,337.96875,346.984375,356],"_type":"histogram"},"parameters/classifier.2.bias":{"bins":[-0.06209726259112358,-0.0598200261592865,-0.05754278972744942,-0.055265553295612335,-0.05298832058906555,-0.05071108415722847,-0.04843384772539139,-0.046156611293554306,-0.043879374861717224,-0.04160213842988014,-0.03932490199804306,-0.03704766556620598,-0.034770429134368896,-0.03249319642782211,-0.03021595999598503,-0.02793872356414795,-0.025661487132310867,-0.023384250700473785,-0.021107014268636703,-0.01882977969944477,-0.01655254326760769,-0.014275306835770607,-0.0119980713352561,-0.009720835834741592,-0.0074435994029045105,-0.005166363436728716,-0.0028891274705529213,-0.0006118915043771267,0.001665344461798668,0.0039425804279744625,0.006219816394150257,0.008497051894664764,0.010774284601211548,0.01305152103304863,0.015328756533563137,0.017605992034077644,0.019883228465914726,0.022160464897751808,0.02443769946694374,0.026714935898780823,0.028992172330617905,0.03126940876245499,0.03354664519429207,0.03582388162612915,0.038101114332675934,0.040378350764513016,0.0426555871963501,0.04493282362818718,0.04721006006002426,0.04948729649186134,0.051764532923698425,0.05404176935553551,0.05631900578737259,0.05859623849391937,0.060873474925756454,0.06315071135759354,0.06542794406414032,0.0677051842212677,0.06998241692781448,0.07225965708494186,0.07453688979148865,0.07681412994861603,0.07909136265516281,0.08136860281229019,0.08364583551883698],"_type":"histogram","values":[1,0,1,0,1,0,0,0,0,1,0,0,0,0,0,0,0,0,1,0,0,0,0,0,0,0,0,2,0,0,0,0,0,0,1,0,0,0,0,0,0,1,0,0,0,0,0,0,0,0,0,0,0,0,0,0,0,0,0,0,0,0,0,1]},"parameters/features.3.weight":{"values":[1,0,0,0,0,0,3,2,5,8,14,16,25,31,55,67,110,190,268,424,680,783,750,842,797,825,868,829,780,840,823,831,792,846,810,795,803,733,719,612,457,273,156,148,105,85,59,40,32,25,23,20,11,6,4,2,3,1,1,0,1,1,1,1],"bins":[-0.17045782506465912,-0.164827361702919,-0.1591968983411789,-0.15356643497943878,-0.14793598651885986,-0.14230552315711975,-0.13667505979537964,-0.13104459643363953,-0.12541413307189941,-0.1197836697101593,-0.11415320634841919,-0.10852275043725967,-0.10289228707551956,-0.09726182371377945,-0.09163136780261993,-0.08600090444087982,-0.08037044107913971,-0.0747399777173996,-0.06910951435565948,-0.06347905844449997,-0.05784859508275986,-0.052218131721019745,-0.04658767208456993,-0.04095721244812012,-0.035326749086380005,-0.029696287587285042,-0.02406582608819008,-0.018435364589095116,-0.012804903090000153,-0.0071744415909051895,-0.0015439800918102264,0.004086481407284737,0.0097169429063797,0.015347404405474663,0.020977865904569626,0.02660832740366459,0.03223878890275955,0.037869252264499664,0.04349971190094948,0.04913017153739929,0.054760634899139404,0.06039109826087952,0.06602156162261963,0.07165201753377914,0.07728248089551926,0.08291294425725937,0.08854340016841888,0.094173863530159,0.09980432689189911,0.10543479025363922,0.11106525361537933,0.11669570952653885,0.12232617288827896,0.12795662879943848,0.1335870921611786,0.1392175555229187,0.1448480188846588,0.15047848224639893,0.15610894560813904,0.16173940896987915,0.16736987233161926,0.17300032079219818,0.1786307841539383,0.1842612475156784,0.18989171087741852],"_type":"histogram"},"val/loss":0.02560211398700873,"parameters/features.0.weight":{"bins":[-0.4495815634727478,-0.43345916271209717,-0.41733676195144653,-0.4012143313884735,-0.3850919306278229,-0.36896952986717224,-0.3528471291065216,-0.33672472834587097,-0.32060229778289795,-0.3044798970222473,-0.2883574962615967,-0.27223509550094604,-0.2561126947402954,-0.23999027907848358,-0.22386787831783295,-0.20774546265602112,-0.19162306189537048,-0.17550066113471985,-0.15937824547290802,-0.14325584471225739,-0.12713342905044556,-0.11101102828979492,-0.09488862752914429,-0.07876621931791306,-0.06264381110668182,-0.04652140289545059,-0.03039899840950966,-0.014276592060923576,0.001845814287662506,0.01796822063624859,0.03409062698483467,0.050213031470775604,0.06633543968200684,0.08245784789323807,0.0985802561044693,0.11470265686511993,0.13082507252693176,0.1469474732875824,0.16306987404823303,0.17919228971004486,0.1953146904706955,0.21143709123134613,0.22755950689315796,0.2436819076538086,0.25980430841445923,0.27592670917510986,0.2920491397380829,0.3081715404987335,0.32429394125938416,0.3404163420200348,0.3565387427806854,0.37266117334365845,0.3887835741043091,0.4049059748649597,0.42102837562561035,0.437150776386261,0.4532731771469116,0.46939560770988464,0.4855180084705353,0.5016404390335083,0.5177628397941589,0.5338852405548096,0.5500076413154602,0.5661300420761108,0.5822524428367615],"_type":"histogram","values":[1,0,1,0,2,2,1,2,15,5,7,6,6,6,6,6,10,7,8,1,6,7,7,5,4,6,7,4,4,6,7,4,4,2,2,3,3,3,5,10,6,5,2,9,4,4,11,4,3,6,4,10,7,2,3,6,2,4,0,1,2,0,0,2]},"batch/loss":0.020201250910758972,"_wandb":{"runtime":275},"gradients/classifier.0.bias":{"bins":[-21.5,-20.6123046875,-19.724609375,-18.8369140625,-17.94921875,-17.0615234375,-16.173828125,-15.2861328125,-14.3984375,-13.5107421875,-12.623046875,-11.7353515625,-10.84765625,-9.9599609375,-9.072265625,-8.1845703125,-7.296875,-6.4091796875,-5.521484375,-4.6337890625,-3.74609375,-2.8583984375,-1.970703125,-1.0830078125,-0.1953125,0.6923828125,1.580078125,2.4677734375,3.35546875,4.2431640625,5.130859375,6.0185546875,6.90625,7.7939453125,8.681640625,9.5693359375,10.45703125,11.3447265625,12.232421875,13.1201171875,14.0078125,14.8955078125,15.783203125,16.6708984375,17.55859375,18.4462890625,19.333984375,20.2216796875,21.109375,21.9970703125,22.884765625,23.7724609375,24.66015625,25.5478515625,26.435546875,27.3232421875,28.2109375,29.0986328125,29.986328125,30.8740234375,31.76171875,32.6494140625,33.537109375,34.4248046875,35.3125],"_type":"histogram","values":[1,0,0,0,2,1,2,1,2,2,1,1,2,1,1,3,3,1,4,1,6,4,7,6,29,5,9,2,1,2,3,1,2,1,2,4,0,2,1,1,3,2,1,1,1,0,1,1,0,0,0,0,0,0,0,0,0,0,0,0,0,0,0,1]},"Test Confusion Matrix_table":{"artifact_path":"wandb-client-artifact://yav8f39xokefcyok8i1xsk8af5tpnpjnilvopt0owqboy7slzi0f1eqgwus4r9iohn4osem12i3vthfohb38bbqqpr5ir6mf4b7296upd7mwj4ih3vfj4fzk63ieu9ux/Test Confusion Matrix_table.table.json","size":1786,"log_mode":"IMMUTABLE","path":"media/table/Test Confusion Matrix_table_1924_54cbcc773e07cd3ab70c.table.json","ncols":3,"nrows":100,"_latest_artifact_path":"wandb-client-artifact://emdsiabqn38fq1yqa29ndh8hxdwgwuy3wrxf1z5zcq5aorbgxjsba6pbifk0ihrt7pkhy5ljdbdw02jocy9cerv1ub33txft2dvjpyaw4b2a66m6nmxz9t0xrp0zvic2:latest/Test Confusion Matrix_table.table.json","sha256":"54cbcc773e07cd3ab70c4894f3a247143d556a844cef9f4d931086aff77a655e","_type":"table-file"},"train/loss":0.014419194132089615,"_runtime":275,"gradients/features.3.weight":{"_type":"histogram","values":[1,1,0,0,0,2,1,2,3,4,0,7,2,1,5,9,11,8,8,11,29,25,33,28,49,70,76,113,157,237,311,507,809,1287,2749,6767,2065,1044,621,396,284,190,135,89,66,60,44,17,29,10,11,11,11,6,5,3,4,1,2,2,1,0,0,2],"bins":[-215.25,-209.158203125,-203.06640625,-196.974609375,-190.8828125,-184.791015625,-178.69921875,-172.607421875,-166.515625,-160.423828125,-154.33203125,-148.240234375,-142.1484375,-136.056640625,-129.96484375,-123.873046875,-117.78125,-111.689453125,-105.59765625,-99.505859375,-93.4140625,-87.322265625,-81.23046875,-75.138671875,-69.046875,-62.955078125,-56.86328125,-50.771484375,-44.6796875,-38.587890625,-32.49609375,-26.404296875,-20.3125,-14.220703125,-8.12890625,-2.037109375,4.0546875,10.146484375,16.23828125,22.330078125,28.421875,34.513671875,40.60546875,46.697265625,52.7890625,58.880859375,64.97265625,71.064453125,77.15625,83.248046875,89.33984375,95.431640625,101.5234375,107.615234375,113.70703125,119.798828125,125.890625,131.982421875,138.07421875,144.166015625,150.2578125,156.349609375,162.44140625,168.533203125,174.625]},"epoch":39,"best_val_accuracy":99.15}