{"best_test_accuracy":98.65,"_timestamp":1.7688271878627195e+09,"_step":962,"parameters/features.0.weight":{"bins":[-0.41802477836608887,-0.4029632806777954,-0.38790181279182434,-0.3728403151035309,-0.3577788472175598,-0.34271734952926636,-0.3276558518409729,-0.31259438395500183,-0.2975328862667084,-0.2824714183807373,-0.26740992069244385,-0.2523484230041504,-0.23728695511817932,-0.22222547233104706,-0.2071639746427536,-0.19210249185562134,-0.17704100906848907,-0.1619795262813568,-0.14691804349422455,-0.1318565458059311,-0.11679506301879883,-0.10173358023166656,-0.0866720974445343,-0.07161060720682144,-0.05654912441968918,-0.04148763790726662,-0.026426153257489204,-0.011364667676389217,0.0036968179047107697,0.01875830441713333,0.033819787204265594,0.048881273716688156,0.06394276022911072,0.07900424301624298,0.09406573325395584,0.1091272160410881,0.12418870627880096,0.13925018906593323,0.1543116718530655,0.16937315464019775,0.1844346523284912,0.19949613511562347,0.21455761790275574,0.229619100689888,0.24468058347702026,0.2597420811653137,0.2748035490512848,0.28986504673957825,0.3049265146255493,0.3199880123138428,0.33504951000213623,0.3501109778881073,0.36517247557640076,0.3802339434623718,0.3952954411506653,0.41035693883895874,0.4254184067249298,0.44047990441322327,0.45554137229919434,0.4706028699874878,0.48566436767578125,0.5007258653640747,0.5157873034477234,0.5308488011360168,0.5459102988243103],"_type":"histogram","values":[1,0,1,2,2,1,6,11,5,7,6,5,6,5,5,7,11,7,4,3,5,6,8,7,1,10,2,4,5,6,7,3,6,1,3,2,2,3,4,8,7,6,4,6,4,3,11,5,2,3,9,7,9,3,2,6,4,3,1,1,1,1,0,2]},"best_test_loss":0.03794517448544502,"Images/weights/features.3":{"sha256":"32bf1c84c0d92a2b8b2bfbc560d7c4e3e59edcf152a77147bcb475ce07495ab2","size":43763,"path":"media/images/Images/weights/features.3_960_32bf1c84c0d92a2b8b2b.png","format":"png","width":162,"height":322,"caption":"Weights features.3","_type":"image-file"},"train/accuracy":99.075,"_wandb":{"runtime":152},"epoch":19,"parameters/classifier.2.weight":{"values":[1,0,1,2,2,0,0,4,4,8,4,10,10,7,7,16,14,30,32,34,49,53,54,55,58,55,57,54,52,42,55,44,42,47,46,46,29,50,33,23,21,17,13,15,12,9,8,8,9,6,6,5,4,4,1,1,2,3,2,1,1,1,0,1],"bins":[-0.2984358072280884,-0.28822895884513855,-0.2780221104621887,-0.2678152620792389,-0.25760841369628906,-0.24740158021450043,-0.2371947467327118,-0.22698789834976196,-0.21678104996681213,-0.2065742015838623,-0.19636735320091248,-0.18616051971912384,-0.175953671336174,-0.16574682295322418,-0.15553998947143555,-0.14533314108848572,-0.1351262927055359,-0.12491944432258606,-0.11471260339021683,-0.1045057624578476,-0.09429891407489777,-0.08409206569194794,-0.0738852247595787,-0.06367838382720947,-0.053471535444259644,-0.04326469078660011,-0.03305784612894058,-0.02285100147128105,-0.012644156813621521,-0.0024373121559619904,0.00776953250169754,0.01797637715935707,0.0281832218170166,0.03839006647467613,0.04859691113233566,0.058803755789995193,0.06901060044765472,0.07921744883060455,0.08942428976297379,0.09963113069534302,0.10983797907829285,0.12004482746124268,0.1302516758441925,0.14045850932598114,0.15066535770893097,0.1608722060918808,0.17107903957366943,0.18128588795661926,0.1914927363395691,0.20169958472251892,0.21190643310546875,0.22211326658725739,0.23232011497020721,0.24252696335315704,0.2527337968349457,0.2629406452178955,0.27314749360084534,0.28335434198379517,0.293561190366745,0.3037680387496948,0.31397485733032227,0.3241817057132721,0.3343885540962219,0.34459540247917175,0.3548022508621216],"_type":"histogram"},"Images/activations/features.0":{"height":602,"caption":"Activations features.0","_type":"image-file","sha256":"ea76c421b6fb2977056b42c7e9cde8bafe7099c91747f1438566e749db7c7265","size":431894,"path":"media/images/Images/activations/features.0_960_ea76c421b6fb2977056b.png","format":"png","width":962},"Validation Confusion Matrix_table":{"nrows":100,"log_mode":"IMMUTABLE","sha256":"7db26a35398b1974c85df368627c1f603c18c8f3292c0d236b6574a760df5595","path":"media/table/Validation Confusion Matrix_table_960_7db26a35398b1974c85d.table.json","ncols":3,"_type":"table-file","size":1794,"artifact_path":"wandb-client-artifact://kuu5var8jl41ixwow8usk3xic4wff32cs0g7qiudw16d1hqk63mnyi94ylya8hjx91ttrcyc86o5xifjru0988ztre0k2ax3b1ou4dy4erhqui2ivliloqrcdpdr4uby/Validation Confusion Matrix_table.table.json","_latest_artifact_path":"wandb-client-artifact://t61cqzikl8edih0illfwj8nxvcvow5ts3l2n8s3in82erff9chhxx312g84hfr44xubo1vsjnj20lc2tbz84iiw3cdv8xgnm6kmzoy5uibxcfjaygjwfr3ldbel0k1xi:latest/Validation Confusion Matrix_table.table.json"},"gradients/classifier.2.weight":{"bins":[-873,-846.328125,-819.65625,-792.984375,-766.3125,-739.640625,-712.96875,-686.296875,-659.625,-632.953125,-606.28125,-579.609375,-552.9375,-526.265625,-499.59375,-472.921875,-446.25,-419.578125,-392.90625,-366.234375,-339.5625,-312.890625,-286.21875,-259.546875,-232.875,-206.203125,-179.53125,-152.859375,-126.1875,-99.515625,-72.84375,-46.171875,-19.5,7.171875,33.84375,60.515625,87.1875,113.859375,140.53125,167.203125,193.875,220.546875,247.21875,273.890625,300.5625,327.234375,353.90625,380.578125,407.25,433.921875,460.59375,487.265625,513.9375,540.609375,567.28125,593.953125,620.625,647.296875,673.96875,700.640625,727.3125,753.984375,780.65625,807.328125,834],"_type":"histogram","values":[1,0,0,0,0,0,0,0,1,1,0,0,3,0,4,1,2,1,7,4,8,9,8,7,15,22,29,19,31,32,52,69,487,137,75,59,45,42,27,17,12,15,7,6,3,4,4,5,3,1,1,0,2,0,0,1,0,0,0,0,0,0,0,1]},"parameters/features.3.bias":{"values":[1,1,0,0,0,0,1,0,1,1,1,0,2,1,2,0,2,1,4,3,0,1,0,2,1,2,0,2,3,2,0,0,0,2,0,1,1,1,1,2,3,1,0,0,1,1,0,0,3,4,1,2,1,0,0,2,0,0,2,0,0,0,0,1],"bins":[-0.08401881158351898,-0.08174177259206772,-0.07946473360061646,-0.07718769460916519,-0.07491065561771393,-0.07263362407684326,-0.070356585085392,-0.06807954609394073,-0.06580250710248947,-0.06352546811103821,-0.061248429119586945,-0.05897139385342598,-0.056694354861974716,-0.05441731587052345,-0.05214028060436249,-0.049863241612911224,-0.04758620262145996,-0.0453091636300087,-0.043032124638557434,-0.04075508937239647,-0.038478050380945206,-0.03620101138949394,-0.03392397612333298,-0.031646937131881714,-0.02936989814043045,-0.027092859148979187,-0.024815822020173073,-0.02253878489136696,-0.020261745899915695,-0.017984706908464432,-0.015707669779658318,-0.013430631719529629,-0.011153601109981537,-0.008876563049852848,-0.006599524989724159,-0.00432248692959547,-0.0020454488694667816,0.0002315891906619072,0.002508627250790596,0.004785665310919285,0.007062703371047974,0.009339741431176662,0.011616779491305351,0.01389381755143404,0.01617085561156273,0.018447894603013992,0.020724931731820107,0.02300196886062622,0.025279007852077484,0.027556046843528748,0.029833083972334862,0.032110121101140976,0.03438716009259224,0.0366641990840435,0.03894123435020447,0.04121827334165573,0.043495312333106995,0.04577235132455826,0.04804939031600952,0.050326425582170486,0.05260346457362175,0.05488050356507301,0.05715753883123398,0.05943457782268524,0.061711616814136505],"_type":"histogram"},"parameters/classifier.0.bias":{"values":[4,0,0,0,3,2,2,2,2,1,3,1,4,2,3,0,3,3,7,1,1,3,4,4,1,2,5,5,1,4,4,1,1,6,2,5,4,1,1,2,3,2,4,0,0,2,0,2,3,2,0,2,3,1,0,0,0,0,1,0,1,0,0,2],"bins":[-0.016820263117551804,-0.016186971217393875,-0.015553677454590797,-0.014920385554432869,-0.014287092722952366,-0.013653799891471863,-0.013020507991313934,-0.012387215159833431,-0.011753922328352928,-0.011120629496872425,-0.010487336665391922,-0.009854044765233994,-0.00922075193375349,-0.008587459102272987,-0.007954167202115059,-0.007320874370634556,-0.006687581539154053,-0.00605428870767355,-0.005420996341854334,-0.004787703976035118,-0.004154411144554615,-0.0035211185459047556,-0.002887825947254896,-0.0022545333486050367,-0.0016212407499551773,-0.0009879481513053179,-0.00035465555265545845,0.000278637045994401,0.0009119296446442604,0.0015452222432941198,0.0021785148419439793,0.0028118074405938387,0.0034451019018888474,0.00407839473336935,0.004711687099188566,0.005344979465007782,0.005978272296488285,0.006611565127968788,0.007244857493788004,0.00787814985960722,0.008511442691087723,0.009144735522568226,0.009778028354048729,0.010411320254206657,0.01104461308568716,0.011677905917167664,0.012311197817325592,0.012944490648806095,0.013577783480286598,0.014211076311767101,0.014844369143247604,0.015477661043405533,0.01611095294356346,0.01674424670636654,0.017377538606524467,0.018010832369327545,0.018644124269485474,0.019277416169643402,0.01991070993244648,0.020544001832604408,0.021177295595407486,0.021810587495565414,0.022443879395723343,0.02307717315852642,0.02371046505868435],"_type":"histogram"},"gradients/classifier.0.bias":{"values":[1,0,0,0,0,0,0,0,0,1,0,0,1,0,0,0,0,0,1,2,2,1,2,1,1,2,4,1,7,1,4,2,1,8,7,6,32,6,3,2,3,1,0,3,4,2,2,2,0,1,2,0,2,0,0,1,2,0,0,1,0,0,1,2],"bins":[-51.25,-49.8349609375,-48.419921875,-47.0048828125,-45.58984375,-44.1748046875,-42.759765625,-41.3447265625,-39.9296875,-38.5146484375,-37.099609375,-35.6845703125,-34.26953125,-32.8544921875,-31.439453125,-30.0244140625,-28.609375,-27.1943359375,-25.779296875,-24.3642578125,-22.94921875,-21.5341796875,-20.119140625,-18.7041015625,-17.2890625,-15.8740234375,-14.458984375,-13.0439453125,-11.62890625,-10.2138671875,-8.798828125,-7.3837890625,-5.96875,-4.5537109375,-3.138671875,-1.7236328125,-0.30859375,1.1064453125,2.521484375,3.9365234375,5.3515625,6.7666015625,8.181640625,9.5966796875,11.01171875,12.4267578125,13.841796875,15.2568359375,16.671875,18.0869140625,19.501953125,20.9169921875,22.33203125,23.7470703125,25.162109375,26.5771484375,27.9921875,29.4072265625,30.822265625,32.2373046875,33.65234375,35.0673828125,36.482421875,37.8974609375,39.3125],"_type":"histogram"},"Test Predictions":{"size":35961,"path":"media/table/Test Predictions_962_b5660c3d6d406fc8bcae.table.json","sha256":"b5660c3d6d406fc8bcae49e3b5984975c16331ce6a9e5dc417a928302dc7f6f8","ncols":14,"artifact_path":"wandb-client-artifact://ym53xxbun956h74ksvtx9tyzv81o5qm5nwimm0e417vgbznukzlh8ao371q8bse7mosnparpq2k74u20aawhkp39p1j35se7gob47fystuztm85fjd9lxquk9plfumfn/Test Predictions.table.json","log_mode":"IMMUTABLE","nrows":135,"_latest_artifact_path":"wandb-client-artifact://alh8cm9ivelpi3jifrtmwd7960g1sfg8yx5m2i7focqg3sv7c0i81mvvnfge3iag5gwk6wo9p6aq7g4iou8m1dku33gr4e5tit0ukwajit1idvvx4x6e6afukkfj4wyf:latest/Test Predictions.table.json","_type":"table-file"},"fixed_val_images":{"height":28,"format":"png","count":20,"filenames":["media/images/fixed_val_images_0_80ecbab54218f092d06b.png","media/images/fixed_val_images_0_0e19ac87d9ce6accc806.png","media/images/fixed_val_images_0_e6fb4e286e4c480a786b.png","media/images/fixed_val_images_0_cd457770e2cb86cd96ef.png","media/images/fixed_val_images_0_dd8c512108958b2eeb8e.png","media/images/fixed_val_images_0_6c8356eb37d3a3713de2.png","media/images/fixed_val_images_0_d028d3095a0d0d9a3a2f.png","media/images/fixed_val_images_0_0a98fa22aede1f0bc39b.png","media/images/fixed_val_images_0_66fea749945f5bc12ef9.png","media/images/fixed_val_images_0_cc18343c3ea73dfa4443.png","media/images/fixed_val_images_0_6cde73a15c548346c948.png","media/images/fixed_val_images_0_f62a4c3fe566ec1d9567.png","media/images/fixed_val_images_0_9d674950c0097882abe4.png","media/images/fixed_val_images_0_9de96adeaa301889cb33.png","media/images/fixed_val_images_0_033abb4b15c2de269ec9.png","media/images/fixed_val_images_0_0629adb8722c1347e035.png","media/images/fixed_val_images_0_409b634305037aa59be7.png","media/images/fixed_val_images_0_e391c85fc2b03e9e3e2a.png","media/images/fixed_val_images_0_58125d956ecbd4b63554.png","media/images/fixed_val_images_0_64dd55607f26dc893253.png"],"captions":["Img 0","Img 1","Img 2","Img 3","Img 4","Img 5","Img 6","Img 7","Img 8","Img 9","Img 10","Img 11","Img 12","Img 13","Img 14","Img 15","Img 16","Img 17","Img 18","Img 19"],"_type":"images/separated","width":28},"Images/weights/features.0":{"sha256":"82aa61266ad3b6360c669ca3b8e27e2903ad0897fcaaca75f62f69151890c07d","size":1084,"path":"media/images/Images/weights/features.0_960_82aa61266ad3b6360c66.png","format":"png","width":7,"height":162,"caption":"Weights features.0","_type":"image-file"},"gradients/features.0.weight":{"bins":[-331.5,-321.08203125,-310.6640625,-300.24609375,-289.828125,-279.41015625,-268.9921875,-258.57421875,-248.15625,-237.73828125,-227.3203125,-216.90234375,-206.484375,-196.06640625,-185.6484375,-175.23046875,-164.8125,-154.39453125,-143.9765625,-133.55859375,-123.140625,-112.72265625,-102.3046875,-91.88671875,-81.46875,-71.05078125,-60.6328125,-50.21484375,-39.796875,-29.37890625,-18.9609375,-8.54296875,1.875,12.29296875,22.7109375,33.12890625,43.546875,53.96484375,64.3828125,74.80078125,85.21875,95.63671875,106.0546875,116.47265625,126.890625,137.30859375,147.7265625,158.14453125,168.5625,178.98046875,189.3984375,199.81640625,210.234375,220.65234375,231.0703125,241.48828125,251.90625,262.32421875,272.7421875,283.16015625,293.578125,303.99609375,314.4140625,324.83203125,335.25],"_type":"histogram","values":[1,0,1,1,0,0,0,0,1,0,0,1,1,2,4,0,1,7,2,1,4,2,0,1,7,10,9,4,7,16,13,28,48,31,12,14,9,4,6,5,3,4,2,1,3,2,2,3,2,1,3,0,1,1,0,0,1,2,2,0,0,0,1,1]},"parameters/features.3.weight":{"_type":"histogram","values":[1,0,0,0,0,0,2,4,4,11,20,18,25,33,62,72,153,208,340,529,666,712,727,765,754,760,770,769,719,774,763,730,733,758,791,749,721,739,698,684,598,509,307,178,144,115,88,54,45,34,27,19,16,10,5,7,4,1,2,1,0,1,1,2],"bins":[-0.15705740451812744,-0.15194064378738403,-0.14682388305664062,-0.14170712232589722,-0.1365903615951538,-0.1314736008644104,-0.1263568252325058,-0.12124007195234299,-0.11612330377101898,-0.11100654304027557,-0.10588978230953217,-0.10077302157878876,-0.09565626084804535,-0.09053950011730194,-0.08542273193597794,-0.08030597120523453,-0.07518921047449112,-0.07007244974374771,-0.0649556890130043,-0.059838924556970596,-0.05472216010093689,-0.04960539937019348,-0.04448863863945007,-0.03937187418341637,-0.03425511345267296,-0.0291383508592844,-0.024021588265895844,-0.018904827535152435,-0.013788064941763878,-0.00867130234837532,-0.0035545406863093376,0.0015622214414179325,0.006678983569145203,0.01179574616253376,0.016912508755922318,0.022029269486665726,0.027146032080054283,0.03226279467344284,0.03737955540418625,0.042496319860219955,0.047613080590963364,0.05272984132170677,0.05784660577774048,0.06296336650848389,0.0680801272392273,0.0731968879699707,0.07831365615129471,0.08343041688203812,0.08854717761278152,0.09366393834352493,0.09878069907426834,0.10389746725559235,0.10901422798633575,0.11413098871707916,0.11924774944782257,0.12436451017856598,0.1294812709093094,0.1345980316400528,0.1397147923707962,0.1448315680027008,0.1499483287334442,0.15506508946418762,0.16018185019493103,0.16529861092567444,0.17041537165641785]},"gradients/features.3.bias":{"bins":[-62.625,-60.5849609375,-58.544921875,-56.5048828125,-54.46484375,-52.4248046875,-50.384765625,-48.3447265625,-46.3046875,-44.2646484375,-42.224609375,-40.1845703125,-38.14453125,-36.1044921875,-34.064453125,-32.0244140625,-29.984375,-27.9443359375,-25.904296875,-23.8642578125,-21.82421875,-19.7841796875,-17.744140625,-15.7041015625,-13.6640625,-11.6240234375,-9.583984375,-7.5439453125,-5.50390625,-3.4638671875,-1.423828125,0.6162109375,2.65625,4.6962890625,6.736328125,8.7763671875,10.81640625,12.8564453125,14.896484375,16.9365234375,18.9765625,21.0166015625,23.056640625,25.0966796875,27.13671875,29.1767578125,31.216796875,33.2568359375,35.296875,37.3369140625,39.376953125,41.4169921875,43.45703125,45.4970703125,47.537109375,49.5771484375,51.6171875,53.6572265625,55.697265625,57.7373046875,59.77734375,61.8173828125,63.857421875,65.8974609375,67.9375],"_type":"histogram","values":[1,1,0,0,1,2,0,0,1,0,1,1,2,1,0,2,1,3,1,1,3,0,0,3,0,1,0,1,2,0,2,0,1,3,3,1,1,1,3,1,1,0,1,1,1,2,2,1,1,1,0,0,0,0,1,0,1,0,0,1,1,2,1,1]},"parameters/features.0.bias":{"bins":[-0.2999686300754547,-0.29049819707870483,-0.28102776408195496,-0.27155736088752747,-0.2620869278907776,-0.2526164948940277,-0.24314606189727783,-0.23367564380168915,-0.22420521080493927,-0.2147347778081894,-0.2052643597126007,-0.19579392671585083,-0.18632349371910095,-0.17685307562351227,-0.1673826426267624,-0.1579122245311737,-0.14844179153442383,-0.13897135853767395,-0.12950094044208527,-0.12003050744533539,-0.11056008189916611,-0.10108965635299683,-0.09161922335624695,-0.08214879781007767,-0.07267837226390839,-0.0632079467177391,-0.053737517446279526,-0.044267088174819946,-0.034796662628650665,-0.025326235219836235,-0.015855807811021805,-0.006385380402207375,0.003085017204284668,0.012555444613099098,0.02202587202191353,0.03149630129337311,0.04096672683954239,0.05043715238571167,0.05990758165717125,0.06937801092863083,0.07884843647480011,0.08831886202096939,0.09778928756713867,0.10725972056388855,0.11673014611005783,0.1262005716562271,0.135671004652977,0.14514142274856567,0.15461185574531555,0.16408228874206543,0.1735527068376541,0.183023139834404,0.19249355792999268,0.20196399092674255,0.21143442392349243,0.22090484201908112,0.230375275015831,0.23984570801258087,0.24931612610816956,0.25878655910491943,0.2682569921016693,0.2777274250984192,0.2871978282928467,0.29666826128959656,0.30613869428634644],"_type":"histogram","values":[1,0,0,0,0,2,2,0,2,1,0,1,0,1,1,1,2,0,0,2,0,1,0,1,0,1,1,0,3,0,0,0,0,0,0,0,0,1,0,0,0,0,0,0,0,0,0,1,0,0,1,1,0,0,0,1,0,0,1,0,1,0,0,2]},"parameters/classifier.2.bias":{"bins":[-0.06068415939807892,-0.05844055861234665,-0.05619696155190468,-0.05395336449146271,-0.05170976370573044,-0.04946616291999817,-0.0472225658595562,-0.04497896879911423,-0.04273536801338196,-0.04049176722764969,-0.03824817016720772,-0.03600457310676575,-0.03376097232103348,-0.03151737153530121,-0.029273774474859238,-0.027030175551772118,-0.024786576628684998,-0.022542977705597878,-0.020299378782510757,-0.018055779859423637,-0.015812180936336517,-0.013568582013249397,-0.011324983090162277,-0.009081384167075157,-0.006837785243988037,-0.004594186320900917,-0.002350587397813797,-0.00010698847472667694,0.002136610448360443,0.004380209371447563,0.006623808294534683,0.008867407217621803,0.011110998690128326,0.013354597613215446,0.015598196536302567,0.017841795459389687,0.020085394382476807,0.022328993305563927,0.024572592228651047,0.026816191151738167,0.029059790074825287,0.031303390860557556,0.03354698792099953,0.0357905849814415,0.03803418576717377,0.040277786552906036,0.04252138361334801,0.04476498067378998,0.04700858145952225,0.04925218224525452,0.05149577930569649,0.05373937636613846,0.05598297715187073,0.058226577937603,0.06047017499804497,0.06271377205848694,0.06495737284421921,0.06720097362995148,0.06944456696510315,0.07168816775083542,0.07393176853656769,0.07617536932229996,0.07841897010803223,0.0806625634431839,0.08290616422891617],"_type":"histogram","values":[1,0,1,1,0,0,0,0,0,1,0,0,0,0,0,0,0,0,1,0,0,0,0,0,0,0,1,1,0,0,0,0,0,0,1,0,0,0,0,0,0,1,0,0,0,0,0,0,0,0,0,0,0,0,0,0,0,0,0,0,0,0,0,1]},"batch/loss":0.032012879848480225,"gradients/classifier.2.bias":{"bins":[-99.5,-96.5654296875,-93.630859375,-90.6962890625,-87.76171875,-84.8271484375,-81.892578125,-78.9580078125,-76.0234375,-73.0888671875,-70.154296875,-67.2197265625,-64.28515625,-61.3505859375,-58.416015625,-55.4814453125,-52.546875,-49.6123046875,-46.677734375,-43.7431640625,-40.80859375,-37.8740234375,-34.939453125,-32.0048828125,-29.0703125,-26.1357421875,-23.201171875,-20.2666015625,-17.33203125,-14.3974609375,-11.462890625,-8.5283203125,-5.59375,-2.6591796875,0.275390625,3.2099609375,6.14453125,9.0791015625,12.013671875,14.9482421875,17.8828125,20.8173828125,23.751953125,26.6865234375,29.62109375,32.5556640625,35.490234375,38.4248046875,41.359375,44.2939453125,47.228515625,50.1630859375,53.09765625,56.0322265625,58.966796875,61.9013671875,64.8359375,67.7705078125,70.705078125,73.6396484375,76.57421875,79.5087890625,82.443359375,85.3779296875,88.3125],"_type":"histogram","values":[1,0,0,0,0,0,0,0,0,0,1,0,0,1,0,0,0,0,0,0,0,0,0,0,0,0,0,0,0,0,1,0,0,0,0,1,0,0,0,0,2,0,0,1,0,0,0,0,0,0,0,0,0,0,0,0,0,0,0,0,0,1,0,1]},"_runtime":152,"parameters/classifier.0.weight":{"_type":"histogram","values":[1,0,0,0,1,0,0,2,0,4,0,5,3,6,13,14,19,38,60,63,118,158,233,416,665,942,1761,3036,6860,23923,29103,30592,31248,31723,31708,31979,31672,31216,31146,30067,27220,14654,4323,2419,1403,833,559,414,240,174,122,83,46,45,15,17,16,9,11,3,0,3,3,1],"bins":[-0.10215200483798981,-0.09925561398267746,-0.09635922312736511,-0.09346282482147217,-0.09056643396615982,-0.08767004311084747,-0.08477365225553513,-0.08187725394964218,-0.07898086309432983,-0.07608447223901749,-0.07318808138370514,-0.07029169052839279,-0.06739529222249985,-0.0644989013671875,-0.06160251051187515,-0.05870611593127251,-0.05580972507596016,-0.05291333422064781,-0.050016939640045166,-0.04712054878473282,-0.04422415420413017,-0.041327763348817825,-0.03843136876821518,-0.03553497791290283,-0.032638587057590485,-0.02974219247698784,-0.026845799759030342,-0.023949407041072845,-0.021053016185760498,-0.018156623467803,-0.015260230749845505,-0.012363838031888008,-0.009467445313930511,-0.006571052595973015,-0.0036746603436768055,-0.0007782678585499525,0.0021181246265769005,0.005014517344534397,0.00791090913116932,0.010807301849126816,0.013703694567084312,0.01660008728504181,0.019496480002999306,0.022392872720956802,0.02528926357626915,0.028185656294226646,0.031082049012184143,0.03397844359278679,0.036874834448099136,0.039771225303411484,0.04266761988401413,0.04556401073932648,0.04846040531992912,0.05135679617524147,0.054253190755844116,0.057149581611156464,0.06004597246646881,0.06294236332178116,0.0658387616276741,0.06873515248298645,0.0716315433382988,0.07452793419361115,0.07742433249950409,0.08032072335481644,0.08321711421012878]},"gradients/features.3.weight":{"bins":[-325.75,-315.41015625,-305.0703125,-294.73046875,-284.390625,-274.05078125,-263.7109375,-253.37109375,-243.03125,-232.69140625,-222.3515625,-212.01171875,-201.671875,-191.33203125,-180.9921875,-170.65234375,-160.3125,-149.97265625,-139.6328125,-129.29296875,-118.953125,-108.61328125,-98.2734375,-87.93359375,-77.59375,-67.25390625,-56.9140625,-46.57421875,-36.234375,-25.89453125,-15.5546875,-5.21484375,5.125,15.46484375,25.8046875,36.14453125,46.484375,56.82421875,67.1640625,77.50390625,87.84375,98.18359375,108.5234375,118.86328125,129.203125,139.54296875,149.8828125,160.22265625,170.5625,180.90234375,191.2421875,201.58203125,211.921875,222.26171875,232.6015625,242.94140625,253.28125,263.62109375,273.9609375,284.30078125,294.640625,304.98046875,315.3203125,325.66015625,336],"_type":"histogram","values":[1,0,0,3,1,1,1,2,2,3,1,4,3,13,7,11,12,24,30,30,50,40,75,114,168,221,322,467,824,1274,2409,5960,2054,1076,839,574,442,329,223,176,133,108,86,66,43,49,34,32,14,13,16,14,4,9,7,3,3,1,3,1,1,0,2,4]},"Test Confusion Matrix_table":{"_type":"table-file","artifact_path":"wandb-client-artifact://f23dr01o30ftp9xu8okahzz0evfk22xpdnv4t1kjk2km161pgcajflsm1h72ahynte23id2lu8ilcqfkn7ui78le9gnj4iigacjp0wcowclnyrdvcrxsybbn44v4xhgy/Test Confusion Matrix_table.table.json","log_mode":"IMMUTABLE","size":1785,"_latest_artifact_path":"wandb-client-artifact://qr9tyo819p7f536570cm0y96yk84ue8aj72sre6paby0h6i8u888t288mk12b3o1swmntenb69fbsu9tolz97tdw1b5pydfme9k4wa7z3mrs6383e9qys34g50u2pqph:latest/Test Confusion Matrix_table.table.json","nrows":100,"sha256":"92fa19577b92c83f74c867963143d13b88f331114e75548ce14e5f1fc34b78f8","path":"media/table/Test Confusion Matrix_table_961_92fa19577b92c83f74c8.table.json","ncols":3},"train/loss":0.0329297734896342,"val/accuracy":98.475,"Validation Predictions":{"nrows":183,"artifact_path":"wandb-client-artifact://peekmeiepyc3pcba7noio7iqox2z3q95dvp9vqcbux0wu9fs28x61adwfpbqlmdogjtmm12ule1b4m93npfyr6zk7q1vz62mv97bwc5pstxfzqwsr23xu3oubxrzn2rp/Validation Predictions.table.json","_latest_artifact_path":"wandb-client-artifact://9iind335kh5qf2vtfd7k6f9n7yz8ohorias25gtmsbn0diuojpoybutvjr47uct67kez8gjly3s0l5iqxh6ipito0tm9fjsn6wrm2hpf2dojkfkrp45aap0wetmqiyb5:latest/Validation Predictions.table.json","path":"media/table/Validation Predictions_960_037fd6c8e52cb140f8c9.table.json","_type":"table-file","size":48578,"log_mode":"IMMUTABLE","sha256":"037fd6c8e52cb140f8c936a124521759874075818bcb169a73c7c42ccdfde28c","ncols":14},"gradients/classifier.0.weight":{"bins":[-398.5,-387.1640625,-375.828125,-364.4921875,-353.15625,-341.8203125,-330.484375,-319.1484375,-307.8125,-296.4765625,-285.140625,-273.8046875,-262.46875,-251.1328125,-239.796875,-228.4609375,-217.125,-205.7890625,-194.453125,-183.1171875,-171.78125,-160.4453125,-149.109375,-137.7734375,-126.4375,-115.1015625,-103.765625,-92.4296875,-81.09375,-69.7578125,-58.421875,-47.0859375,-35.75,-24.4140625,-13.078125,-1.7421875,9.59375,20.9296875,32.265625,43.6015625,54.9375,66.2734375,77.609375,88.9453125,100.28125,111.6171875,122.953125,134.2890625,145.625,156.9609375,168.296875,179.6328125,190.96875,202.3046875,213.640625,224.9765625,236.3125,247.6484375,258.984375,270.3203125,281.65625,292.9921875,304.328125,315.6640625,327],"_type":"histogram","values":[1,0,0,1,1,0,0,1,3,2,5,3,6,4,9,11,19,17,22,32,43,70,98,137,149,245,394,566,933,1465,2349,4298,7855,16640,58060,269527,18199,8074,4421,2586,1686,1108,719,493,346,236,170,102,98,65,47,25,20,20,8,7,4,1,3,1,1,0,1,1]},"val/loss":0.04496317958831787,"gradients/features.0.bias":{"values":[1,0,0,0,0,0,0,0,0,0,0,0,0,0,0,0,0,0,0,0,0,0,0,1,0,1,0,1,1,0,0,1,3,1,0,2,1,3,1,1,2,1,2,1,1,0,0,1,1,1,0,0,0,1,0,0,0,0,1,0,1,0,0,1],"bins":[-259.75,-253.30859375,-246.8671875,-240.42578125,-233.984375,-227.54296875,-221.1015625,-214.66015625,-208.21875,-201.77734375,-195.3359375,-188.89453125,-182.453125,-176.01171875,-169.5703125,-163.12890625,-156.6875,-150.24609375,-143.8046875,-137.36328125,-130.921875,-124.48046875,-118.0390625,-111.59765625,-105.15625,-98.71484375,-92.2734375,-85.83203125,-79.390625,-72.94921875,-66.5078125,-60.06640625,-53.625,-47.18359375,-40.7421875,-34.30078125,-27.859375,-21.41796875,-14.9765625,-8.53515625,-2.09375,4.34765625,10.7890625,17.23046875,23.671875,30.11328125,36.5546875,42.99609375,49.4375,55.87890625,62.3203125,68.76171875,75.203125,81.64453125,88.0859375,94.52734375,100.96875,107.41015625,113.8515625,120.29296875,126.734375,133.17578125,139.6171875,146.05859375,152.5],"_type":"histogram"},"best_val_loss":0.04496317958831787,"Images/activations/features.3":{"sha256":"ff327572deb6e2b9689b146737698d571e1a6adfb045f4cb056b1497684cab61","size":392498,"path":"media/images/Images/activations/features.3_960_ff327572deb6e2b9689b.png","format":"png","width":1026,"height":322,"caption":"Activations features.3","_type":"image-file"},"best_val_accuracy":98.475}