{"fixed_val_images":{"captions":["Img 0","Img 1","Img 2","Img 3","Img 4","Img 5","Img 6","Img 7","Img 8","Img 9"],"_type":"images/separated","width":28,"height":28,"format":"png","count":10,"filenames":["media/images/fixed_val_images_0_e884add24826b0a5c177.png","media/images/fixed_val_images_0_685d3daa1f8cf6990179.png","media/images/fixed_val_images_0_cdc2d529ce99310f8295.png","media/images/fixed_val_images_0_17f1c20586fce1f8086a.png","media/images/fixed_val_images_0_1a977571227eaa4571b1.png","media/images/fixed_val_images_0_fd4b93c969754148fd9e.png","media/images/fixed_val_images_0_44673acd685c171b045a.png","media/images/fixed_val_images_0_ede348a02849127d8e58.png","media/images/fixed_val_images_0_4280b92572ffacec43fc.png","media/images/fixed_val_images_0_feeef84a56b6a190d792.png"]},"parameters/features.3.weight":{"bins":[-0.13422974944114685,-0.1299751251935959,-0.12572050094604492,-0.12146587669849396,-0.117211252450943,-0.11295662820339203,-0.10870200395584106,-0.1044473797082901,-0.10019275546073914,-0.09593812376260757,-0.09168349951505661,-0.08742887526750565,-0.08317425101995468,-0.07891962677240372,-0.07466500252485275,-0.07041037827730179,-0.06615575402975082,-0.06190112978219986,-0.057646505534648895,-0.05339188128709793,-0.04913725703954697,-0.044882629066705704,-0.04062800481915474,-0.036373380571603775,-0.03211875632405281,-0.027864132076501846,-0.023609507828950882,-0.01935488171875477,-0.015100257471203804,-0.01084563322365284,-0.006591008044779301,-0.002336383331567049,0.0019182413816452026,0.006172866094857454,0.010427490808069706,0.014682115986943245,0.01893674023449421,0.023191364482045174,0.027445990592241287,0.03170061483979225,0.035955239087343216,0.04020986333489418,0.044464487582445145,0.04871911182999611,0.05297373980283737,0.057228364050388336,0.0614829882979393,0.06573761254549026,0.06999223679304123,0.0742468610405922,0.07850148528814316,0.08275610953569412,0.08701073378324509,0.09126535803079605,0.09551998227834702,0.09977460652589798,0.10402923822402954,0.1082838624715805,0.11253848671913147,0.11679311096668243,0.1210477352142334,0.12530235946178436,0.12955698370933533,0.1338116079568863,0.13806623220443726],"_type":"histogram","values":[2,1,0,1,0,2,4,10,5,10,20,23,37,68,107,138,264,352,531,510,622,613,615,646,617,624,659,628,688,647,571,659,663,614,602,676,632,622,628,622,607,581,590,554,428,264,168,113,90,84,61,45,31,21,16,15,7,9,7,0,2,3,2,1]},"best_val_loss":0.0669347534775734,"Images/activations/features.0":{"_type":"image-file","sha256":"a212597bfff99a253f6daf002e2381efba7b5788d0421289837f5a6c3a9c4cc8","size":219243,"path":"media/images/Images/activations/features.0_480_a212597bfff99a253f6d.png","format":"png","width":962,"height":302,"caption":"Activations features.0"},"Images/weights/features.3":{"height":322,"caption":"Weights features.3","_type":"image-file","sha256":"b29c53adb65f2d46d1b17fe791c2a039defac2cf9171b557f8c3d98dc500313f","size":43884,"path":"media/images/Images/weights/features.3_480_b29c53adb65f2d46d1b1.png","format":"png","width":162},"Images/weights/features.0":{"sha256":"4acafa3d3fa4b1e1ab421cd8072533a5a958ffb24a3622525974df06ed3448c7","size":1060,"path":"media/images/Images/weights/features.0_480_4acafa3d3fa4b1e1ab42.png","format":"png","width":7,"height":162,"caption":"Weights features.0","_type":"image-file"},"gradients/features.0.weight":{"values":[2,0,0,2,0,0,0,1,1,0,0,0,2,1,0,0,1,3,0,0,2,0,2,0,0,2,0,1,4,2,3,0,0,6,7,9,10,17,10,42,38,28,13,19,6,5,5,5,2,7,3,3,2,6,2,1,4,0,2,2,1,1,1,2],"bins":[-795,-775.46484375,-755.9296875,-736.39453125,-716.859375,-697.32421875,-677.7890625,-658.25390625,-638.71875,-619.18359375,-599.6484375,-580.11328125,-560.578125,-541.04296875,-521.5078125,-501.97265625,-482.4375,-462.90234375,-443.3671875,-423.83203125,-404.296875,-384.76171875,-365.2265625,-345.69140625,-326.15625,-306.62109375,-287.0859375,-267.55078125,-248.015625,-228.48046875,-208.9453125,-189.41015625,-169.875,-150.33984375,-130.8046875,-111.26953125,-91.734375,-72.19921875,-52.6640625,-33.12890625,-13.59375,5.94140625,25.4765625,45.01171875,64.546875,84.08203125,103.6171875,123.15234375,142.6875,162.22265625,181.7578125,201.29296875,220.828125,240.36328125,259.8984375,279.43359375,298.96875,318.50390625,338.0390625,357.57421875,377.109375,396.64453125,416.1796875,435.71484375,455.25],"_type":"histogram"},"_wandb":{"runtime":53},"best_test_loss":0.05616327557563782,"best_test_accuracy":98.13,"_runtime":53.006776914,"train/accuracy":98.29791666666667,"gradients/classifier.2.bias":{"_type":"histogram","values":[1,0,0,0,0,0,1,0,1,1,0,0,0,1,1,0,0,0,0,0,0,1,0,0,0,0,0,0,0,0,0,0,0,0,0,0,0,1,0,0,0,0,1,0,0,0,0,0,0,0,0,0,0,0,0,0,0,0,0,0,0,0,0,1],"bins":[-236.625,-225.716796875,-214.80859375,-203.900390625,-192.9921875,-182.083984375,-171.17578125,-160.267578125,-149.359375,-138.451171875,-127.54296875,-116.634765625,-105.7265625,-94.818359375,-83.91015625,-73.001953125,-62.09375,-51.185546875,-40.27734375,-29.369140625,-18.4609375,-7.552734375,3.35546875,14.263671875,25.171875,36.080078125,46.98828125,57.896484375,68.8046875,79.712890625,90.62109375,101.529296875,112.4375,123.345703125,134.25390625,145.162109375,156.0703125,166.978515625,177.88671875,188.794921875,199.703125,210.611328125,221.51953125,232.427734375,243.3359375,254.244140625,265.15234375,276.060546875,286.96875,297.876953125,308.78515625,319.693359375,330.6015625,341.509765625,352.41796875,363.326171875,374.234375,385.142578125,396.05078125,406.958984375,417.8671875,428.775390625,439.68359375,450.591796875,461.5]},"train/loss":0.059541973372300466,"val/accuracy":97.93333333333334,"batch/loss":0.05978202074766159,"gradients/classifier.0.bias":{"bins":[-130.25,-126.0859375,-121.921875,-117.7578125,-113.59375,-109.4296875,-105.265625,-101.1015625,-96.9375,-92.7734375,-88.609375,-84.4453125,-80.28125,-76.1171875,-71.953125,-67.7890625,-63.625,-59.4609375,-55.296875,-51.1328125,-46.96875,-42.8046875,-38.640625,-34.4765625,-30.3125,-26.1484375,-21.984375,-17.8203125,-13.65625,-9.4921875,-5.328125,-1.1640625,3,7.1640625,11.328125,15.4921875,19.65625,23.8203125,27.984375,32.1484375,36.3125,40.4765625,44.640625,48.8046875,52.96875,57.1328125,61.296875,65.4609375,69.625,73.7890625,77.953125,82.1171875,86.28125,90.4453125,94.609375,98.7734375,102.9375,107.1015625,111.265625,115.4296875,119.59375,123.7578125,127.921875,132.0859375,136.25],"_type":"histogram","values":[2,0,0,0,0,0,0,1,0,0,0,0,1,2,1,2,1,2,5,3,2,5,1,2,4,2,5,1,5,5,5,20,7,3,3,2,1,5,5,3,3,0,0,2,2,1,2,1,3,2,1,0,1,1,0,1,0,1,0,0,0,0,0,1]},"parameters/features.3.bias":{"_type":"histogram","values":[1,0,0,0,1,1,0,0,1,3,0,2,0,1,3,1,4,0,0,0,0,0,1,1,2,0,3,2,1,0,1,1,1,2,0,1,1,0,0,0,1,2,0,2,1,1,1,2,3,2,0,2,1,0,1,1,2,2,0,1,2,1,0,1],"bins":[-0.06708893179893494,-0.0652998685836792,-0.06351080536842346,-0.061721738427877426,-0.05993267148733139,-0.05814360827207565,-0.056354545056819916,-0.05456547811627388,-0.05277641490101814,-0.05098734796047211,-0.04919828474521637,-0.04740922152996063,-0.0456201545894146,-0.04383109137415886,-0.042042024433612823,-0.040252961218357086,-0.03846389800310135,-0.03667483106255531,-0.034885767847299576,-0.03309670090675354,-0.0313076376914978,-0.029518572613596916,-0.02772950753569603,-0.025940442457795143,-0.024151377379894257,-0.02236231416463852,-0.020573249086737633,-0.018784184008836746,-0.01699511893093586,-0.015206054784357548,-0.013416989706456661,-0.01162792555987835,-0.009838860481977463,-0.008049795404076576,-0.006260731257498264,-0.004471666179597378,-0.0026826015673577785,-0.0008935368387028575,0.0008955278899520636,0.0026845927350223064,0.004473657347261906,0.006262721959501505,0.008051786571741104,0.00984085164964199,0.011629916727542877,0.013418980874121189,0.015208045952022076,0.016997110098600388,0.018786175176501274,0.02057524025440216,0.022364305332303047,0.024153368547558784,0.02594243362545967,0.027731498703360558,0.029520563781261444,0.03130962699651718,0.03309869393706322,0.034887757152318954,0.03667682409286499,0.03846588730812073,0.040254950523376465,0.0420440174639225,0.04383308067917824,0.045622147619724274,0.04741121083498001]},"parameters/classifier.0.weight":{"values":[1,0,1,1,0,2,1,1,2,7,16,12,22,37,51,66,106,196,282,453,760,1221,2222,4350,16222,24146,25423,26574,26926,27239,27125,27233,27447,27167,27161,26263,26216,24304,19012,5754,2855,1678,980,632,432,271,181,113,93,41,38,26,13,12,5,5,3,3,0,1,1,2,0,1],"bins":[-0.07794198393821716,-0.07547394186258316,-0.07300589233636856,-0.07053785026073456,-0.06806980818510056,-0.06560175865888596,-0.06313371658325195,-0.06066567450761795,-0.05819762870669365,-0.05572958290576935,-0.053261540830135345,-0.050793495029211044,-0.04832544922828674,-0.04585740715265274,-0.04338936135172844,-0.04092131927609444,-0.038453273475170135,-0.035985227674245834,-0.03351718559861183,-0.03104913979768753,-0.02858109585940838,-0.026113051921129227,-0.023645006120204926,-0.021176962181925774,-0.01870891824364662,-0.01624087430536747,-0.013772829435765743,-0.011304784566164017,-0.008836740627884865,-0.006368696223944426,-0.0039006518200039864,-0.0014326074160635471,0.001035444438457489,0.0035034888423979282,0.0059715332463383675,0.008439578115940094,0.010907622054219246,0.013375665992498398,0.0158437117934227,0.01831175573170185,0.020779799669981003,0.023247843608260155,0.025715887546539307,0.028183933347463608,0.03065197728574276,0.03312002122402191,0.03558806702494621,0.038056109100580215,0.04052415490150452,0.04299220070242882,0.04546024277806282,0.04792828857898712,0.050396330654621124,0.052864376455545425,0.05533242225646973,0.05780046433210373,0.06026851013302803,0.06273655593395233,0.06520459800958633,0.06767264008522034,0.07014068961143494,0.07260873168706894,0.07507677376270294,0.07754482328891754,0.08001286536455154],"_type":"histogram"},"parameters/classifier.2.weight":{"values":[1,0,3,3,0,1,1,3,6,10,8,7,11,9,19,16,15,32,26,34,40,45,45,36,43,48,49,42,40,49,44,29,36,39,33,46,52,40,37,39,33,27,21,15,17,14,13,17,9,13,8,9,14,8,4,3,6,4,2,3,1,0,1,1],"bins":[-0.24740171432495117,-0.2393677830696106,-0.2313338667154312,-0.22329993546009064,-0.21526601910591125,-0.20723208785057068,-0.1991981565952301,-0.19116424024105072,-0.18313030898571014,-0.17509637773036957,-0.16706246137619019,-0.1590285301208496,-0.15099459886550903,-0.14296068251132965,-0.13492675125598907,-0.1268928349018097,-0.11885890364646912,-0.11082497984170914,-0.10279105603694916,-0.09475712478160858,-0.0867232009768486,-0.07868927717208862,-0.07065534591674805,-0.06262142211198807,-0.05458749830722809,-0.04655357450246811,-0.03851964697241783,-0.030485721305012703,-0.022451795637607574,-0.014417869970202446,-0.0063839443027973175,0.001649981364607811,0.009683877229690552,0.01771780289709568,0.02575172856450081,0.033785656094551086,0.041819579899311066,0.049853503704071045,0.05788743123412132,0.0659213587641716,0.07395528256893158,0.08198920637369156,0.09002313017845154,0.09805706143379211,0.1060909852385521,0.11412490904331207,0.12215884029865265,0.13019275665283203,0.1382266879081726,0.14626061916351318,0.15429453551769257,0.16232846677303314,0.17036238312721252,0.1783963143825531,0.18643024563789368,0.19446416199207306,0.20249809324741364,0.2105320245027542,0.2185659408569336,0.22659987211227417,0.23463380336761475,0.24266771972179413,0.2507016360759735,0.2587355673313141,0.26676949858665466],"_type":"histogram"},"val/loss":0.0669347534775734,"Images/activations/features.3":{"height":162,"caption":"Activations features.3","_type":"image-file","sha256":"4aa254026c7b9fdc18f89f906dbe8456964e12755e02d7590e522b6cc92f7325","size":201516,"path":"media/images/Images/activations/features.3_480_4aa254026c7b9fdc18f8.png","format":"png","width":1026},"parameters/features.0.weight":{"values":[2,0,3,6,8,3,5,3,6,5,4,7,10,4,6,7,11,5,6,3,9,3,1,2,8,4,8,4,4,4,6,6,5,3,3,2,1,6,4,3,5,4,8,8,2,4,5,3,2,5,5,6,4,3,7,7,2,2,5,2,5,2,0,2],"bins":[-0.3887077271938324,-0.37511882185935974,-0.3615299165248871,-0.34794101119041443,-0.3343520760536194,-0.32076317071914673,-0.3071742653846741,-0.2935853600502014,-0.27999645471572876,-0.2664075493812561,-0.25281864404678345,-0.2392297238111496,-0.22564081847667694,-0.21205191314220428,-0.19846299290657043,-0.18487408757209778,-0.17128518223762512,-0.15769627690315247,-0.1441073715686798,-0.13051845133304596,-0.1169295459985733,-0.10334064066410065,-0.0897517278790474,-0.07616281509399414,-0.06257390975952148,-0.04898500069975853,-0.035396091639995575,-0.02180718258023262,-0.008218273520469666,0.005370635539293289,0.018959544599056244,0.0325484536588192,0.04613736271858215,0.05972627177834511,0.07331518083810806,0.08690409362316132,0.10049299895763397,0.11408190429210663,0.12767082452774048,0.14125972986221313,0.1548486351966858,0.16843754053115845,0.1820264458656311,0.19561536610126495,0.2092042714357376,0.22279317677021027,0.23638209700584412,0.24997100234031677,0.26355990767478943,0.2771488130092621,0.29073771834373474,0.3043266236782074,0.31791555881500244,0.3315044641494751,0.34509336948394775,0.3586822748184204,0.37227118015289307,0.3858600854873657,0.3994489908218384,0.41303789615631104,0.4266268014907837,0.44021573662757874,0.4538046419620514,0.46739354729652405,0.4809824526309967],"_type":"histogram"},"parameters/features.0.bias":{"_type":"histogram","values":[1,1,0,0,0,0,1,0,1,0,0,1,1,0,1,2,1,1,0,0,0,1,1,1,0,0,0,0,1,3,1,1,0,0,1,0,0,0,0,0,1,1,3,0,1,0,1,0,0,0,0,0,0,0,0,0,1,0,0,1,1,0,0,1],"bins":[-0.2792723774909973,-0.2698805034160614,-0.2604885995388031,-0.2510967254638672,-0.24170485138893127,-0.23231296241283417,-0.22292107343673706,-0.21352919936180115,-0.20413731038570404,-0.19474542140960693,-0.18535354733467102,-0.1759616583585739,-0.1665697693824768,-0.1571778953075409,-0.1477860063314438,-0.13839413225650787,-0.12900224328041077,-0.11961036175489426,-0.11021848022937775,-0.10082659125328064,-0.09143470972776413,-0.08204282820224762,-0.07265093922615051,-0.063259057700634,-0.05386717617511749,-0.04447529464960098,-0.035083409398794174,-0.025691526010632515,-0.016299642622470856,-0.0069077592343091965,0.0024841241538524628,0.011876007542014122,0.02126789093017578,0.03065977431833744,0.0400516577064991,0.04944354295730591,0.05883542448282242,0.06822730600833893,0.07761919498443604,0.08701107650995255,0.09640295803546906,0.10579483956098557,0.11518672108650208,0.12457861006259918,0.1339704990386963,0.1433623731136322,0.1527542620897293,0.16214613616466522,0.17153802514076233,0.18092991411685944,0.19032178819179535,0.19971367716789246,0.20910555124282837,0.21849744021892548,0.22788932919502258,0.2372812032699585,0.2466730922460556,0.2560649812221527,0.2654568552970886,0.27484872937202454,0.28424063324928284,0.29363250732421875,0.30302438139915466,0.31241628527641296,0.3218081593513489]},"gradients/features.0.bias":{"values":[1,0,0,0,0,0,0,0,0,0,0,0,0,0,0,0,0,0,0,0,0,2,0,0,0,0,0,0,1,1,0,1,2,0,0,1,1,0,0,1,0,2,1,1,1,2,2,3,1,2,0,1,0,2,0,0,0,0,0,0,1,0,0,2],"bins":[-342,-333.47265625,-324.9453125,-316.41796875,-307.890625,-299.36328125,-290.8359375,-282.30859375,-273.78125,-265.25390625,-256.7265625,-248.19921875,-239.671875,-231.14453125,-222.6171875,-214.08984375,-205.5625,-197.03515625,-188.5078125,-179.98046875,-171.453125,-162.92578125,-154.3984375,-145.87109375,-137.34375,-128.81640625,-120.2890625,-111.76171875,-103.234375,-94.70703125,-86.1796875,-77.65234375,-69.125,-60.59765625,-52.0703125,-43.54296875,-35.015625,-26.48828125,-17.9609375,-9.43359375,-0.90625,7.62109375,16.1484375,24.67578125,33.203125,41.73046875,50.2578125,58.78515625,67.3125,75.83984375,84.3671875,92.89453125,101.421875,109.94921875,118.4765625,127.00390625,135.53125,144.05859375,152.5859375,161.11328125,169.640625,178.16796875,186.6953125,195.22265625,203.75],"_type":"histogram"},"best_val_accuracy":97.93333333333334,"parameters/classifier.0.bias":{"values":[2,2,0,2,0,1,1,0,1,1,5,0,2,2,3,4,3,4,2,3,1,6,4,4,0,5,0,1,3,2,1,2,5,4,6,3,2,3,0,5,2,0,0,3,1,0,3,0,5,3,3,2,0,3,0,1,3,2,1,0,0,0,0,1],"bins":[-0.018300939351320267,-0.017630156129598618,-0.01695937290787697,-0.01628858968615532,-0.015617805533111095,-0.014947021380066872,-0.014276238158345222,-0.013605454936623573,-0.012934671714901924,-0.0122638875618577,-0.011593104340136051,-0.010922321118414402,-0.010251536965370178,-0.009580753743648529,-0.00890997052192688,-0.008239186368882656,-0.007568403147161007,-0.0068976194597780704,-0.006226836238056421,-0.005556052550673485,-0.004885269328951836,-0.004214485641568899,-0.0035437019541859627,-0.00287291849963367,-0.002202135045081377,-0.0015313515905290842,-0.0008605680195614696,-0.00018978450680151582,0.0004809990059584379,0.0011517824605107307,0.0018225660314783454,0.00249334960244596,0.003164133056998253,0.0038349165115505457,0.0045056999661028385,0.005176483653485775,0.005847266875207424,0.006518050562590361,0.007188834249973297,0.007859617471694946,0.008530400693416595,0.00920118484646082,0.009871968068182468,0.010542751289904118,0.011213535442948341,0.01188431866466999,0.01255510188639164,0.013225886039435863,0.013896669261157513,0.014567452482879162,0.015238236635923386,0.015909019857645035,0.016579803079366684,0.017250586301088333,0.017921369522809982,0.01859215460717678,0.01926293782889843,0.01993372105062008,0.020604504272341728,0.021275287494063377,0.021946070715785027,0.022616855800151825,0.023287639021873474,0.023958422243595123,0.024629205465316772],"_type":"histogram"},"gradients/features.3.weight":{"_type":"histogram","values":[2,3,2,0,4,5,3,5,4,3,4,6,4,11,17,17,17,25,21,23,36,58,53,83,92,110,156,203,249,395,577,1004,1930,4837,4596,1742,769,412,270,186,126,98,75,49,33,30,17,15,8,10,8,9,8,4,2,1,0,0,1,0,2,1,0,1],"bins":[-806.5,-782.8125,-759.125,-735.4375,-711.75,-688.0625,-664.375,-640.6875,-617,-593.3125,-569.625,-545.9375,-522.25,-498.5625,-474.875,-451.1875,-427.5,-403.8125,-380.125,-356.4375,-332.75,-309.0625,-285.375,-261.6875,-238,-214.3125,-190.625,-166.9375,-143.25,-119.5625,-95.875,-72.1875,-48.5,-24.8125,-1.125,22.5625,46.25,69.9375,93.625,117.3125,141,164.6875,188.375,212.0625,235.75,259.4375,283.125,306.8125,330.5,354.1875,377.875,401.5625,425.25,448.9375,472.625,496.3125,520,543.6875,567.375,591.0625,614.75,638.4375,662.125,685.8125,709.5]},"_step":481,"parameters/classifier.2.bias":{"values":[1,0,0,0,0,1,0,0,0,0,0,1,0,0,0,0,0,0,0,0,0,0,0,0,0,0,0,1,0,0,0,0,0,0,0,0,0,0,1,1,0,0,0,1,0,0,0,0,1,0,0,0,0,0,1,0,0,0,0,0,0,0,0,1],"bins":[-0.07702012360095978,-0.07525535672903061,-0.07349058985710144,-0.07172583043575287,-0.0699610635638237,-0.06819629669189453,-0.06643152981996536,-0.0646667629480362,-0.06290199607610703,-0.061137232929468155,-0.059372466057538986,-0.057607702910900116,-0.05584293603897095,-0.05407816916704178,-0.05231340602040291,-0.05054863914847374,-0.04878387600183487,-0.0470191091299057,-0.04525434225797653,-0.04348957911133766,-0.04172481223940849,-0.039960045367479324,-0.038195282220840454,-0.036430515348911285,-0.03466574847698212,-0.032900985330343246,-0.031136218458414078,-0.02937145344913006,-0.02760668657720089,-0.02584192156791687,-0.02407715655863285,-0.022312389686703682,-0.020547624677419662,-0.018782859668135643,-0.017018092796206474,-0.015253327786922455,-0.013488562777638435,-0.011723796837031841,-0.009959030896425247,-0.008194265887141228,-0.006429499946534634,-0.004664734471589327,-0.0028999687638133764,-0.0011352031724527478,0.0006295624189078808,0.0023943278938531876,0.004159093834459782,0.005923859309405088,0.007688624784350395,0.00945339072495699,0.011218155734241009,0.012982921674847603,0.014747686684131622,0.01651245355606079,0.01827721856534481,0.02004198357462883,0.021806750446558,0.023571515455842018,0.025336280465126038,0.027101045474410057,0.028865812346339226,0.030630577355623245,0.032395344227552414,0.034160107374191284,0.03592487424612045],"_type":"histogram"},"gradients/features.3.bias":{"values":[1,0,1,0,0,0,0,1,0,0,2,1,1,0,0,1,1,0,0,1,0,1,0,2,1,0,2,0,0,0,3,3,1,1,0,1,0,2,4,6,1,2,0,1,1,2,4,0,0,1,1,1,0,2,0,2,1,2,2,1,1,1,0,1],"bins":[-159.25,-155.458984375,-151.66796875,-147.876953125,-144.0859375,-140.294921875,-136.50390625,-132.712890625,-128.921875,-125.130859375,-121.33984375,-117.548828125,-113.7578125,-109.966796875,-106.17578125,-102.384765625,-98.59375,-94.802734375,-91.01171875,-87.220703125,-83.4296875,-79.638671875,-75.84765625,-72.056640625,-68.265625,-64.474609375,-60.68359375,-56.892578125,-53.1015625,-49.310546875,-45.51953125,-41.728515625,-37.9375,-34.146484375,-30.35546875,-26.564453125,-22.7734375,-18.982421875,-15.19140625,-11.400390625,-7.609375,-3.818359375,-0.02734375,3.763671875,7.5546875,11.345703125,15.13671875,18.927734375,22.71875,26.509765625,30.30078125,34.091796875,37.8828125,41.673828125,45.46484375,49.255859375,53.046875,56.837890625,60.62890625,64.419921875,68.2109375,72.001953125,75.79296875,79.583984375,83.375],"_type":"histogram"},"gradients/classifier.2.weight":{"bins":[-1316,-1254.3125,-1192.625,-1130.9375,-1069.25,-1007.5625,-945.875,-884.1875,-822.5,-760.8125,-699.125,-637.4375,-575.75,-514.0625,-452.375,-390.6875,-329,-267.3125,-205.625,-143.9375,-82.25,-20.5625,41.125,102.8125,164.5,226.1875,287.875,349.5625,411.25,472.9375,534.625,596.3125,658,719.6875,781.375,843.0625,904.75,966.4375,1028.125,1089.8125,1151.5,1213.1875,1274.875,1336.5625,1398.25,1459.9375,1521.625,1583.3125,1645,1706.6875,1768.375,1830.0625,1891.75,1953.4375,2015.125,2076.8125,2138.5,2200.1875,2261.875,2323.5625,2385.25,2446.9375,2508.625,2570.3125,2632],"_type":"histogram","values":[3,2,2,3,2,3,9,4,5,10,11,15,19,24,27,26,29,54,64,95,113,401,87,41,36,43,23,16,8,14,13,11,8,8,10,2,7,1,6,3,4,2,0,0,1,1,2,0,0,3,1,0,1,0,0,1,0,2,1,0,0,1,0,2]},"_timestamp":1.7687587012643704e+09,"gradients/classifier.0.weight":{"values":[1,0,0,0,1,0,0,1,1,2,0,0,4,3,5,8,7,15,21,29,39,43,85,106,183,235,336,467,697,1091,1556,2401,3815,5984,10081,19046,55686,236316,28661,13210,7196,4568,3008,1998,1396,904,676,459,336,221,167,113,67,51,38,27,11,13,7,7,3,3,1,2],"bins":[-866,-842.7578125,-819.515625,-796.2734375,-773.03125,-749.7890625,-726.546875,-703.3046875,-680.0625,-656.8203125,-633.578125,-610.3359375,-587.09375,-563.8515625,-540.609375,-517.3671875,-494.125,-470.8828125,-447.640625,-424.3984375,-401.15625,-377.9140625,-354.671875,-331.4296875,-308.1875,-284.9453125,-261.703125,-238.4609375,-215.21875,-191.9765625,-168.734375,-145.4921875,-122.25,-99.0078125,-75.765625,-52.5234375,-29.28125,-6.0390625,17.203125,40.4453125,63.6875,86.9296875,110.171875,133.4140625,156.65625,179.8984375,203.140625,226.3828125,249.625,272.8671875,296.109375,319.3515625,342.59375,365.8359375,389.078125,412.3203125,435.5625,458.8046875,482.046875,505.2890625,528.53125,551.7734375,575.015625,598.2578125,621.5],"_type":"histogram"}}