{"gradients/classifier.0.weight":{"values":[1,0,1,0,0,2,0,0,0,5,0,5,2,4,8,16,21,27,45,63,88,130,236,350,597,985,1683,3023,5439,11122,29029,278181,41478,13707,6177,3329,1917,1255,812,517,364,235,148,130,91,50,34,26,21,10,11,10,4,6,2,3,2,4,1,0,0,0,0,1],"bins":[-418.25,-405.02734375,-391.8046875,-378.58203125,-365.359375,-352.13671875,-338.9140625,-325.69140625,-312.46875,-299.24609375,-286.0234375,-272.80078125,-259.578125,-246.35546875,-233.1328125,-219.91015625,-206.6875,-193.46484375,-180.2421875,-167.01953125,-153.796875,-140.57421875,-127.3515625,-114.12890625,-100.90625,-87.68359375,-74.4609375,-61.23828125,-48.015625,-34.79296875,-21.5703125,-8.34765625,4.875,18.09765625,31.3203125,44.54296875,57.765625,70.98828125,84.2109375,97.43359375,110.65625,123.87890625,137.1015625,150.32421875,163.546875,176.76953125,189.9921875,203.21484375,216.4375,229.66015625,242.8828125,256.10546875,269.328125,282.55078125,295.7734375,308.99609375,322.21875,335.44140625,348.6640625,361.88671875,375.109375,388.33203125,401.5546875,414.77734375,428],"_type":"histogram"},"parameters/classifier.0.bias":{"_type":"histogram","values":[4,2,3,1,1,2,1,5,4,1,2,3,4,0,1,4,3,4,4,3,2,5,5,1,5,5,2,1,3,2,5,2,1,2,1,1,3,5,2,0,1,1,1,1,2,2,3,2,1,2,1,0,3,0,0,1,0,0,0,0,0,1,0,1],"bins":[-0.019048621878027916,-0.018274294212460518,-0.01749996654689312,-0.016725638881325722,-0.015951311215758324,-0.0151769844815135,-0.014402656815946102,-0.013628329150378704,-0.012854001484811306,-0.012079673819243908,-0.01130534615367651,-0.010531018488109112,-0.009756691753864288,-0.00898236408829689,-0.008208036422729492,-0.007433708757162094,-0.006659381091594696,-0.005885053426027298,-0.0051107257604599,-0.004336398560553789,-0.003562070894986391,-0.002787743229418993,-0.0020134157966822386,-0.0012390882475301623,-0.0004647606983780861,0.00030956685077399015,0.0010838943999260664,0.0018582219490781426,0.002632549498230219,0.003406877163797617,0.004181204363703728,0.004955532029271126,0.005729861557483673,0.006504189223051071,0.007278516888618469,0.008052844554185867,0.008827172219753265,0.009601498953998089,0.010375826619565487,0.011150154285132885,0.011924481950700283,0.012698809616267681,0.01347313728183508,0.014247464947402477,0.0150217916816473,0.0157961193472147,0.016570447012782097,0.017344774678349495,0.018119102343916893,0.01889343000948429,0.01966775767505169,0.020442085340619087,0.021216413006186485,0.021990740671753883,0.02276506833732128,0.02353939600288868,0.02431372180581093,0.025088049471378326,0.025862377136945724,0.026636704802513123,0.02741103246808052,0.02818536013364792,0.028959687799215317,0.029734015464782715,0.030508343130350113]},"batch/loss":0.061270635575056076,"val/loss":0.06807924642165501,"Images/activations/features.3":{"sha256":"7668ca32e4da66da0ff4da9ec9e47a487018748f88ddcce59cd13e999a0dc4a5","size":216360,"path":"media/images/Images/activations/features.3_962_7668ca32e4da66da0ff4.png","format":"png","width":1026,"height":162,"caption":"Activations features.3","_type":"image-file"},"_runtime":92.009766967,"parameters/features.0.bias":{"_type":"histogram","values":[1,0,1,1,0,0,0,0,2,0,0,1,2,1,0,0,2,0,0,2,1,0,4,1,0,1,0,0,0,0,0,0,0,2,0,1,0,0,0,1,0,0,0,1,0,1,0,0,0,0,1,0,0,2,1,0,0,0,1,0,0,0,0,1],"bins":[-0.3066803216934204,-0.296232134103775,-0.28578391671180725,-0.27533572912216187,-0.2648875415325165,-0.2544393241405487,-0.24399113655090332,-0.23354294896125793,-0.22309474647045135,-0.21264654397964478,-0.2021983563899994,-0.1917501538991928,-0.18130195140838623,-0.17085376381874084,-0.16040556132793427,-0.14995737373828888,-0.1395091712474823,-0.12906096875667572,-0.11861278116703033,-0.10816457867622375,-0.09771638363599777,-0.08726818859577179,-0.07681998610496521,-0.06637179106473923,-0.055923596024513245,-0.04547540098428726,-0.03502720221877098,-0.02457900531589985,-0.014130808413028717,-0.003682611510157585,0.006765585392713547,0.01721378229558468,0.02766197919845581,0.03811017423868179,0.048558373004198074,0.059006571769714355,0.06945476680994034,0.07990296185016632,0.0903511643409729,0.10079935938119888,0.11124755442142487,0.12169574946165085,0.13214394450187683,0.1425921469926834,0.15304034948349,0.16348853707313538,0.17393673956394196,0.18438492715358734,0.19483312964439392,0.2052813321352005,0.2157295197248459,0.22617772221565247,0.23662590980529785,0.24707411229610443,0.257522314786911,0.2679705023765564,0.27841871976852417,0.28886690735816956,0.29931509494781494,0.3097632825374603,0.3202114999294281,0.3306596875190735,0.34110787510871887,0.35155609250068665,0.36200428009033203]},"Images/activations/features.0":{"height":302,"caption":"Activations features.0","_type":"image-file","sha256":"a01969941f2c78a857346105a9c400bfd3373bf381930c0c60e2f158bd469c43","size":239898,"path":"media/images/Images/activations/features.0_962_a01969941f2c78a85734.png","format":"png","width":962},"gradients/features.3.bias":{"_type":"histogram","values":[1,0,0,1,0,0,0,0,0,0,0,2,1,0,1,0,0,1,0,1,1,0,0,0,1,0,1,1,1,1,1,4,1,3,5,5,4,2,4,1,1,0,0,1,1,2,1,2,1,0,2,1,1,0,1,1,2,0,0,1,1,0,0,1],"bins":[-65,-63.14111328125,-61.2822265625,-59.42333984375,-57.564453125,-55.70556640625,-53.8466796875,-51.98779296875,-50.12890625,-48.27001953125,-46.4111328125,-44.55224609375,-42.693359375,-40.83447265625,-38.9755859375,-37.11669921875,-35.2578125,-33.39892578125,-31.5400390625,-29.68115234375,-27.822265625,-25.96337890625,-24.1044921875,-22.24560546875,-20.38671875,-18.52783203125,-16.6689453125,-14.81005859375,-12.951171875,-11.09228515625,-9.2333984375,-7.37451171875,-5.515625,-3.65673828125,-1.7978515625,0.06103515625,1.919921875,3.77880859375,5.6376953125,7.49658203125,9.35546875,11.21435546875,13.0732421875,14.93212890625,16.791015625,18.64990234375,20.5087890625,22.36767578125,24.2265625,26.08544921875,27.9443359375,29.80322265625,31.662109375,33.52099609375,35.3798828125,37.23876953125,39.09765625,40.95654296875,42.8154296875,44.67431640625,46.533203125,48.39208984375,50.2509765625,52.10986328125,53.96875]},"gradients/classifier.2.bias":{"bins":[-186,-180.087890625,-174.17578125,-168.263671875,-162.3515625,-156.439453125,-150.52734375,-144.615234375,-138.703125,-132.791015625,-126.87890625,-120.966796875,-115.0546875,-109.142578125,-103.23046875,-97.318359375,-91.40625,-85.494140625,-79.58203125,-73.669921875,-67.7578125,-61.845703125,-55.93359375,-50.021484375,-44.109375,-38.197265625,-32.28515625,-26.373046875,-20.4609375,-14.548828125,-8.63671875,-2.724609375,3.1875,9.099609375,15.01171875,20.923828125,26.8359375,32.748046875,38.66015625,44.572265625,50.484375,56.396484375,62.30859375,68.220703125,74.1328125,80.044921875,85.95703125,91.869140625,97.78125,103.693359375,109.60546875,115.517578125,121.4296875,127.341796875,133.25390625,139.166015625,145.078125,150.990234375,156.90234375,162.814453125,168.7265625,174.638671875,180.55078125,186.462890625,192.375],"_type":"histogram","values":[1,0,0,0,0,0,0,0,0,0,0,0,0,0,0,0,0,0,0,0,0,1,0,0,0,0,1,0,0,0,1,1,2,0,0,0,0,1,0,1,0,0,0,0,0,0,0,0,0,0,0,0,0,0,0,0,0,0,0,0,0,0,0,1]},"train/accuracy":98.27291666666666,"parameters/classifier.0.weight":{"values":[2,0,2,1,2,4,7,6,7,17,23,36,49,55,76,145,198,317,481,817,1302,2329,4872,17915,24038,25902,26446,26742,26954,26940,27221,27020,27216,26645,26529,25772,24658,17981,5173,2640,1618,1074,667,421,319,209,163,120,77,57,37,36,23,15,10,6,3,5,1,2,3,0,1,1],"bins":[-0.07504872977733612,-0.07258868217468262,-0.07012864202260971,-0.06766859441995621,-0.0652085468173027,-0.0627484992146492,-0.060288455337285995,-0.05782841145992279,-0.05536836385726929,-0.05290831997990608,-0.05044827610254288,-0.047988228499889374,-0.04552818462252617,-0.043068137019872665,-0.04060809314250946,-0.03814804553985596,-0.03568800166249275,-0.03322795778512955,-0.030767910182476044,-0.02830786444246769,-0.025847818702459335,-0.02338777482509613,-0.020927729085087776,-0.018467683345079422,-0.016007637605071068,-0.013547591865062714,-0.01108754612505436,-0.00862750131636858,-0.006167455576360226,-0.003707410069182515,-0.0012473645620048046,0.001212680945172906,0.0036727264523506165,0.006132772192358971,0.008592817932367325,0.011052862741053104,0.013512908481061459,0.015972953289747238,0.018432999029755592,0.020893044769763947,0.0233530905097723,0.025813136249780655,0.02827318198978901,0.030733227729797363,0.03319327160716057,0.03565331920981407,0.03811336308717728,0.04057341068983078,0.043033454567193985,0.04549349844455719,0.04795354604721069,0.0504135899245739,0.0528736375272274,0.05533368140459061,0.05779372900724411,0.060253772884607315,0.06271381676197052,0.06517386436462402,0.06763391196727753,0.07009395211935043,0.07255399972200394,0.07501404732465744,0.07747409492731094,0.07993413507938385,0.08239418268203735],"_type":"histogram"},"gradients/features.3.weight":{"values":[1,0,3,2,3,5,3,4,5,10,5,10,12,11,22,20,24,26,43,57,64,69,85,110,164,205,289,383,622,1006,2056,5825,2883,1506,886,538,368,286,209,130,114,77,49,52,38,36,34,25,16,11,5,5,4,6,0,1,0,4,0,1,1,1,0,2],"bins":[-268.25,-259.765625,-251.28125,-242.796875,-234.3125,-225.828125,-217.34375,-208.859375,-200.375,-191.890625,-183.40625,-174.921875,-166.4375,-157.953125,-149.46875,-140.984375,-132.5,-124.015625,-115.53125,-107.046875,-98.5625,-90.078125,-81.59375,-73.109375,-64.625,-56.140625,-47.65625,-39.171875,-30.6875,-22.203125,-13.71875,-5.234375,3.25,11.734375,20.21875,28.703125,37.1875,45.671875,54.15625,62.640625,71.125,79.609375,88.09375,96.578125,105.0625,113.546875,122.03125,130.515625,139,147.484375,155.96875,164.453125,172.9375,181.421875,189.90625,198.390625,206.875,215.359375,223.84375,232.328125,240.8125,249.296875,257.78125,266.265625,274.75],"_type":"histogram"},"train/loss":0.05810771613319715,"_timestamp":1.768759170408754e+09,"best_val_accuracy":97.89166666666667,"best_test_loss":0.05251975476741791,"gradients/features.0.bias":{"_type":"histogram","values":[2,1,0,0,0,0,0,0,0,1,0,0,0,0,0,1,0,0,0,1,0,0,0,0,1,0,1,0,0,1,1,1,1,1,0,0,1,1,1,2,1,2,3,0,0,0,2,0,0,0,1,2,1,0,0,0,0,1,0,0,0,0,0,1],"bins":[-64.6875,-63.0546875,-61.421875,-59.7890625,-58.15625,-56.5234375,-54.890625,-53.2578125,-51.625,-49.9921875,-48.359375,-46.7265625,-45.09375,-43.4609375,-41.828125,-40.1953125,-38.5625,-36.9296875,-35.296875,-33.6640625,-32.03125,-30.3984375,-28.765625,-27.1328125,-25.5,-23.8671875,-22.234375,-20.6015625,-18.96875,-17.3359375,-15.703125,-14.0703125,-12.4375,-10.8046875,-9.171875,-7.5390625,-5.90625,-4.2734375,-2.640625,-1.0078125,0.625,2.2578125,3.890625,5.5234375,7.15625,8.7890625,10.421875,12.0546875,13.6875,15.3203125,16.953125,18.5859375,20.21875,21.8515625,23.484375,25.1171875,26.75,28.3828125,30.015625,31.6484375,33.28125,34.9140625,36.546875,38.1796875,39.8125]},"parameters/features.3.weight":{"bins":[-0.14182177186012268,-0.1370524913072586,-0.13228321075439453,-0.12751393020153046,-0.12274464964866638,-0.11797536909580231,-0.11320608854293823,-0.10843680799007416,-0.10366752743721008,-0.09889824688434601,-0.09412896633148193,-0.08935968577861786,-0.08459040522575378,-0.07982112467288971,-0.07505184412002563,-0.07028256356716156,-0.06551328301429749,-0.06074400246143341,-0.055974721908569336,-0.05120544135570526,-0.046436160802841187,-0.04166688024997711,-0.03689759969711304,-0.03212831914424896,-0.027359038591384888,-0.022589758038520813,-0.01782047748565674,-0.013051196932792664,-0.008281916379928589,-0.003512635827064514,0.0012566447257995605,0.006025925278663635,0.010795190930366516,0.01556447148323059,0.020333752036094666,0.02510303258895874,0.029872313141822815,0.03464159369468689,0.039410874247550964,0.04418015480041504,0.048949435353279114,0.05371871590614319,0.05848799645900726,0.06325727701187134,0.06802655756473541,0.07279583811759949,0.07756511867046356,0.08233439922332764,0.08710367977619171,0.09187296032905579,0.09664224088191986,0.10141152143478394,0.10618080198764801,0.11095008254051208,0.11571936309337616,0.12048864364624023,0.1252579241991043,0.13002720475196838,0.13479648530483246,0.13956576585769653,0.1443350464105606,0.14910432696342468,0.15387360751628876,0.15864288806915283,0.1634121686220169],"_type":"histogram","values":[1,0,2,2,2,4,6,10,9,15,14,29,44,66,101,148,267,523,613,639,696,747,704,702,719,700,762,732,695,691,669,677,704,688,764,692,742,736,653,637,537,471,245,148,113,72,62,52,28,29,25,11,11,9,1,2,1,4,1,0,2,0,1,2]},"val/accuracy":97.89166666666667,"Images/weights/features.0":{"sha256":"7a6c8377007cd7d78bd1a85772946d1f8a28010eec4b416c20752900636aa8e0","size":1052,"path":"media/images/Images/weights/features.0_962_7a6c8377007cd7d78bd1.png","format":"png","width":7,"height":162,"caption":"Weights features.0","_type":"image-file"},"gradients/classifier.0.bias":{"values":[1,0,0,0,0,0,0,1,1,0,1,1,0,0,2,5,2,0,1,5,1,3,5,0,2,2,6,3,5,4,24,4,5,7,2,4,3,4,6,2,2,3,1,1,1,0,0,0,0,2,0,0,2,0,0,0,2,1,0,0,0,0,0,1],"bins":[-61.71875,-59.68603515625,-57.6533203125,-55.62060546875,-53.587890625,-51.55517578125,-49.5224609375,-47.48974609375,-45.45703125,-43.42431640625,-41.3916015625,-39.35888671875,-37.326171875,-35.29345703125,-33.2607421875,-31.22802734375,-29.1953125,-27.16259765625,-25.1298828125,-23.09716796875,-21.064453125,-19.03173828125,-16.9990234375,-14.96630859375,-12.93359375,-10.90087890625,-8.8681640625,-6.83544921875,-4.802734375,-2.77001953125,-0.7373046875,1.29541015625,3.328125,5.36083984375,7.3935546875,9.42626953125,11.458984375,13.49169921875,15.5244140625,17.55712890625,19.58984375,21.62255859375,23.6552734375,25.68798828125,27.720703125,29.75341796875,31.7861328125,33.81884765625,35.8515625,37.88427734375,39.9169921875,41.94970703125,43.982421875,46.01513671875,48.0478515625,50.08056640625,52.11328125,54.14599609375,56.1787109375,58.21142578125,60.244140625,62.27685546875,64.3095703125,66.34228515625,68.375],"_type":"histogram"},"parameters/features.0.weight":{"_type":"histogram","values":[1,0,1,0,1,0,1,7,6,4,8,2,6,4,7,6,9,9,5,6,11,3,5,5,6,10,5,12,7,5,3,7,8,5,4,5,3,7,5,6,4,6,2,3,5,3,2,3,6,5,4,3,3,8,4,1,3,4,3,4,3,2,1,1],"bins":[-0.44841575622558594,-0.4333593249320984,-0.4183029234409332,-0.4032464921474457,-0.38819006085395813,-0.3731336295604706,-0.3580772280693054,-0.34302079677581787,-0.3279643654823303,-0.31290796399116516,-0.2978515326976776,-0.28279510140419006,-0.2677386701107025,-0.25268226861953735,-0.2376258373260498,-0.22256940603256226,-0.2075129896402359,-0.19245657324790955,-0.177400141954422,-0.16234372556209564,-0.1472872942686081,-0.13223087787628174,-0.11717445403337479,-0.10211803019046783,-0.08706160634756088,-0.07200518250465393,-0.05694875866174698,-0.041892338544130325,-0.026835914701223373,-0.011779491789638996,0.003276931121945381,0.018333353102207184,0.033389776945114136,0.04844620078802109,0.06350262463092804,0.07855904847383499,0.09361547231674194,0.1086718887090683,0.12372831255197525,0.1387847363948822,0.15384116768836975,0.1688975840806961,0.18395400047302246,0.19901043176651,0.21406684815883636,0.2291232794523239,0.24417969584465027,0.2592361271381378,0.274292528629303,0.2893489599227905,0.3044053912162781,0.3194618225097656,0.3345182240009308,0.34957465529441833,0.3646310865879059,0.37968751788139343,0.3947439193725586,0.40980035066604614,0.4248567819595337,0.43991318345069885,0.4549696147441864,0.47002604603767395,0.4850824773311615,0.5001388788223267,0.5151953101158142]},"_wandb":{"runtime":92},"parameters/classifier.2.bias":{"_type":"histogram","values":[1,0,0,0,0,0,0,0,0,0,0,0,0,0,0,0,0,0,0,0,0,0,0,1,0,0,0,0,0,0,0,0,0,0,0,1,0,0,0,0,0,1,0,0,0,1,0,0,0,0,0,0,1,2,0,0,0,0,0,0,0,0,0,2],"bins":[-0.1336657702922821,-0.13006170094013214,-0.12645764648914337,-0.122853584587574,-0.11924952268600464,-0.11564546078443527,-0.1120413988828659,-0.10843733698129654,-0.10483327507972717,-0.10122920572757721,-0.09762514382600784,-0.09402108192443848,-0.09041702002286911,-0.08681295812129974,-0.08320889621973038,-0.07960483431816101,-0.07600077241659164,-0.07239671051502228,-0.06879264861345291,-0.06518858671188354,-0.06158452481031418,-0.057980459183454514,-0.05437639728188515,-0.05077233538031578,-0.047168273478746414,-0.04356421157717705,-0.03996014967560768,-0.036356087774038315,-0.03275202214717865,-0.029147962108254433,-0.025543898344039917,-0.02193983644247055,-0.018335774540901184,-0.014731712639331818,-0.011127649806439877,-0.007523587439209223,-0.003919525071978569,-0.00031546270474791527,0.0032885996624827385,0.006892662029713392,0.010496724396944046,0.014100786298513412,0.01770484820008278,0.021308911964297295,0.02491297386586666,0.028517035767436028,0.03212109953165054,0.03572516143321991,0.039329223334789276,0.04293328523635864,0.04653734713792801,0.050141409039497375,0.05374547094106674,0.05734953656792641,0.06095359846949577,0.06455765664577484,0.0681617259979248,0.07176578789949417,0.07536984980106354,0.0789739117026329,0.08257797360420227,0.08618203550577164,0.089786097407341,0.09339015930891037,0.09699422121047974]},"parameters/classifier.2.weight":{"values":[3,1,3,0,7,4,3,6,2,9,10,15,17,20,19,30,31,26,49,52,41,40,43,44,51,44,32,32,30,40,41,34,25,34,35,35,47,32,39,29,33,25,13,21,13,15,14,11,12,11,10,9,8,6,1,4,4,4,1,2,1,4,2,1],"bins":[-0.2306164652109146,-0.22276175022125244,-0.21490703523159027,-0.2070523351430893,-0.19919762015342712,-0.19134290516376495,-0.18348819017410278,-0.1756334751844406,-0.16777876019477844,-0.15992406010627747,-0.1520693451166153,-0.14421463012695312,-0.13635991513729095,-0.12850520014762878,-0.12065049260854721,-0.11279578506946564,-0.10494107007980347,-0.0970863550901413,-0.08923164755105972,-0.08137693256139755,-0.07352222502231598,-0.06566751003265381,-0.05781279504299164,-0.049958083778619766,-0.042103372514247894,-0.03424866124987602,-0.026393948122859,-0.01853923499584198,-0.010684523731470108,-0.0028298115357756615,0.005024900659918785,0.012879612855613232,0.020734339952468872,0.028589051216840744,0.036443762481212616,0.044298477470874786,0.05215318873524666,0.06000789999961853,0.0678626149892807,0.07571732252836227,0.08357203751802444,0.09142675250768661,0.09928146004676819,0.10713617503643036,0.11499089002609253,0.1228455975651741,0.13070030510425568,0.13855502009391785,0.14640973508358002,0.1542644500732422,0.16211916506290436,0.16997386515140533,0.1778285801410675,0.18568329513072968,0.19353801012039185,0.20139272511005402,0.2092474400997162,0.21710214018821716,0.22495685517787933,0.2328115701675415,0.24066628515720367,0.24852100014686584,0.2563757002353668,0.2642304301261902,0.27208513021469116],"_type":"histogram"},"parameters/features.3.bias":{"values":[2,0,1,2,0,1,0,1,0,0,1,1,1,0,1,1,0,1,1,3,0,0,1,3,1,1,0,0,1,1,2,3,0,1,2,1,0,0,3,3,1,0,1,0,1,2,0,2,0,1,1,2,1,2,1,1,0,0,2,2,2,1,0,1],"bins":[-0.07479681074619293,-0.07296432554721832,-0.07113184034824371,-0.0692993625998497,-0.06746687740087509,-0.06563439220190048,-0.06380190700292587,-0.06196942552924156,-0.06013694033026695,-0.05830445513129234,-0.05647197365760803,-0.05463948845863342,-0.052807003259658813,-0.0509745217859745,-0.04914203658699989,-0.04730955511331558,-0.04547706991434097,-0.043644584715366364,-0.04181210324168205,-0.03997961804270744,-0.03814713656902313,-0.03631465137004852,-0.034482166171073914,-0.0326496846973896,-0.030817199498414993,-0.028984716162085533,-0.027152232825756073,-0.025319747626781464,-0.023487264290452003,-0.021654780954122543,-0.019822295755147934,-0.017989812418818474,-0.016157332807779312,-0.014324849471449852,-0.012492365203797817,-0.010659880936145782,-0.008827397599816322,-0.006994913797825575,-0.005162429995834827,-0.00332994619384408,-0.0014974623918533325,0.00033502141013741493,0.0021675052121281624,0.00399998901411891,0.005832472816109657,0.007664956618100405,0.009497440420091152,0.011329924687743187,0.013162408024072647,0.014994891360402107,0.016827374696731567,0.018659859895706177,0.020492343232035637,0.022324826568365097,0.024157311767339706,0.025989795103669167,0.027822278439998627,0.029654761776328087,0.03148724511265755,0.033319730311632156,0.03515221178531647,0.03698469698429108,0.038817182183265686,0.04064966365695,0.042482148855924606],"_type":"histogram"},"best_val_loss":0.06807924642165501,"_step":963,"Images/weights/features.3":{"_type":"image-file","sha256":"08d217d24ad722daf99f218de17e703b54ae4369eda4098ba54232327d73ca70","size":43774,"path":"media/images/Images/weights/features.3_962_08d217d24ad722daf99f.png","format":"png","width":162,"height":322,"caption":"Weights features.3"},"fixed_val_images":{"width":28,"height":28,"format":"png","count":10,"filenames":["media/images/fixed_val_images_482_f51f46fd060570867050.png","media/images/fixed_val_images_482_5977371f1da2a370d05c.png","media/images/fixed_val_images_482_8af4ea7ac97f40b774eb.png","media/images/fixed_val_images_482_fa790acb18a3688d723a.png","media/images/fixed_val_images_482_3e844e652c32dd5547f2.png","media/images/fixed_val_images_482_3d1db14a1945329bc804.png","media/images/fixed_val_images_482_eb7125a3d0e35a9d5d2a.png","media/images/fixed_val_images_482_82ff653448390db0d6cd.png","media/images/fixed_val_images_482_8015446224af26b11079.png","media/images/fixed_val_images_482_be4511a62f63c66b58ee.png"],"captions":["Img 0","Img 1","Img 2","Img 3","Img 4","Img 5","Img 6","Img 7","Img 8","Img 9"],"_type":"images/separated"},"gradients/classifier.2.weight":{"bins":[-983.5,-947.6171875,-911.734375,-875.8515625,-839.96875,-804.0859375,-768.203125,-732.3203125,-696.4375,-660.5546875,-624.671875,-588.7890625,-552.90625,-517.0234375,-481.140625,-445.2578125,-409.375,-373.4921875,-337.609375,-301.7265625,-265.84375,-229.9609375,-194.078125,-158.1953125,-122.3125,-86.4296875,-50.546875,-14.6640625,21.21875,57.1015625,92.984375,128.8671875,164.75,200.6328125,236.515625,272.3984375,308.28125,344.1640625,380.046875,415.9296875,451.8125,487.6953125,523.578125,559.4609375,595.34375,631.2265625,667.109375,702.9921875,738.875,774.7578125,810.640625,846.5234375,882.40625,918.2890625,954.171875,990.0546875,1025.9375,1061.8203125,1097.703125,1133.5859375,1169.46875,1205.3515625,1241.234375,1277.1171875,1313],"_type":"histogram","values":[1,2,1,1,1,2,2,2,3,2,2,2,1,3,2,6,10,3,6,9,8,13,15,28,40,62,159,503,148,77,41,37,23,10,6,7,4,3,6,4,5,1,5,3,1,2,1,1,1,1,1,1,0,0,1,0,0,0,0,0,0,0,0,1]},"best_test_accuracy":98.27,"gradients/features.0.weight":{"values":[2,1,0,0,0,0,1,0,0,0,0,0,0,0,0,0,0,2,0,2,1,3,5,0,2,2,2,2,3,3,2,3,1,6,5,2,4,2,2,5,5,9,14,16,15,17,20,25,25,14,16,4,7,9,1,3,5,1,4,4,2,4,3,2],"bins":[-310,-303.435546875,-296.87109375,-290.306640625,-283.7421875,-277.177734375,-270.61328125,-264.048828125,-257.484375,-250.919921875,-244.35546875,-237.791015625,-231.2265625,-224.662109375,-218.09765625,-211.533203125,-204.96875,-198.404296875,-191.83984375,-185.275390625,-178.7109375,-172.146484375,-165.58203125,-159.017578125,-152.453125,-145.888671875,-139.32421875,-132.759765625,-126.1953125,-119.630859375,-113.06640625,-106.501953125,-99.9375,-93.373046875,-86.80859375,-80.244140625,-73.6796875,-67.115234375,-60.55078125,-53.986328125,-47.421875,-40.857421875,-34.29296875,-27.728515625,-21.1640625,-14.599609375,-8.03515625,-1.470703125,5.09375,11.658203125,18.22265625,24.787109375,31.3515625,37.916015625,44.48046875,51.044921875,57.609375,64.173828125,70.73828125,77.302734375,83.8671875,90.431640625,96.99609375,103.560546875,110.125],"_type":"histogram"}}